<NeuralNetwork>
   <Inputs>
      <InputsNumber>91</InputsNumber>
      <Input Index="1">column_1_lag_0</Input>
      <Input Index="2">column_2_lag_0</Input>
      <Input Index="3">column_3_lag_0</Input>
      <Input Index="4">column_4_lag_0</Input>
      <Input Index="5">column_5_lag_0</Input>
      <Input Index="6">column_6_lag_0</Input>
      <Input Index="7">column_7_lag_0</Input>
      <Input Index="8">column_8_lag_0</Input>
      <Input Index="9">column_9_lag_0</Input>
      <Input Index="10">column_10_lag_0</Input>
      <Input Index="11">column_11_lag_0</Input>
      <Input Index="12">column_12_lag_0</Input>
      <Input Index="13">column_13_lag_0</Input>
      <Input Index="14">column_14_lag_0</Input>
      <Input Index="15">column_15_lag_0</Input>
      <Input Index="16">column_16_lag_0</Input>
      <Input Index="17">column_17_lag_0</Input>
      <Input Index="18">column_18_lag_0</Input>
      <Input Index="19">column_19_lag_0</Input>
      <Input Index="20">column_20_lag_0</Input>
      <Input Index="21">column_21_lag_0</Input>
      <Input Index="22">column_22_lag_0</Input>
      <Input Index="23">column_23_lag_0</Input>
      <Input Index="24">column_24_lag_0</Input>
      <Input Index="25">column_25_lag_0</Input>
      <Input Index="26">column_26_lag_0</Input>
      <Input Index="27">column_27_lag_0</Input>
      <Input Index="28">column_28_lag_0</Input>
      <Input Index="29">column_29_lag_0</Input>
      <Input Index="30">column_30_lag_0</Input>
      <Input Index="31">column_31_lag_0</Input>
      <Input Index="32">column_32_lag_0</Input>
      <Input Index="33">column_33_lag_0</Input>
      <Input Index="34">column_34_lag_0</Input>
      <Input Index="35">column_35_lag_0</Input>
      <Input Index="36">column_36_lag_0</Input>
      <Input Index="37">column_37_lag_0</Input>
      <Input Index="38">column_38_lag_0</Input>
      <Input Index="39">column_39_lag_0</Input>
      <Input Index="40">column_40_lag_0</Input>
      <Input Index="41">column_41_lag_0</Input>
      <Input Index="42">column_42_lag_0</Input>
      <Input Index="43">column_43_lag_0</Input>
      <Input Index="44">column_44_lag_0</Input>
      <Input Index="45">column_45_lag_0</Input>
      <Input Index="46">column_46_lag_0</Input>
      <Input Index="47">column_47_lag_0</Input>
      <Input Index="48">column_48_lag_0</Input>
      <Input Index="49">column_49_lag_0</Input>
      <Input Index="50">column_50_lag_0</Input>
      <Input Index="51">column_51_lag_0</Input>
      <Input Index="52">column_52_lag_0</Input>
      <Input Index="53">column_53_lag_0</Input>
      <Input Index="54">column_54_lag_0</Input>
      <Input Index="55">column_55_lag_0</Input>
      <Input Index="56">column_56_lag_0</Input>
      <Input Index="57">column_57_lag_0</Input>
      <Input Index="58">column_58_lag_0</Input>
      <Input Index="59">column_59_lag_0</Input>
      <Input Index="60">column_60_lag_0</Input>
      <Input Index="61">column_61_lag_0</Input>
      <Input Index="62">column_62_lag_0</Input>
      <Input Index="63">column_63_lag_0</Input>
      <Input Index="64">column_64_lag_0</Input>
      <Input Index="65">column_65_lag_0</Input>
      <Input Index="66">column_66_lag_0</Input>
      <Input Index="67">column_67_lag_0</Input>
      <Input Index="68">column_68_lag_0</Input>
      <Input Index="69">column_69_lag_0</Input>
      <Input Index="70">column_70_lag_0</Input>
      <Input Index="71">column_71_lag_0</Input>
      <Input Index="72">column_72_lag_0</Input>
      <Input Index="73">column_73_lag_0</Input>
      <Input Index="74">column_74_lag_0</Input>
      <Input Index="75">column_75_lag_0</Input>
      <Input Index="76">column_76_lag_0</Input>
      <Input Index="77">column_77_lag_0</Input>
      <Input Index="78">column_78_lag_0</Input>
      <Input Index="79">column_79_lag_0</Input>
      <Input Index="80">column_80_lag_0</Input>
      <Input Index="81">column_81_lag_0</Input>
      <Input Index="82">column_82_lag_0</Input>
      <Input Index="83">column_83_lag_0</Input>
      <Input Index="84">column_84_lag_0</Input>
      <Input Index="85">column_85_lag_0</Input>
      <Input Index="86">column_86_lag_0</Input>
      <Input Index="87">column_87_lag_0</Input>
      <Input Index="88">column_88_lag_0</Input>
      <Input Index="89">column_89_lag_0</Input>
      <Input Index="90">column_90_lag_0</Input>
      <Input Index="91">column_91_lag_0</Input>
   </Inputs>
   <Layers>
      <LayersTypes>Perceptron Probabilistic</LayersTypes>
      <PerceptronLayer>
         <LayerName>perceptron_layer</LayerName>
         <InputsNumber>91</InputsNumber>
         <NeuronsNumber>1</NeuronsNumber>
         <ActivationFunction>HyperbolicTangent</ActivationFunction>
         <Parameters>0.0908568 -0.010278 0.0259922 0.129575 -0.093742 1.9266 -0.274858 0.401235 0.0923997 -0.152336 2.1856 -0.054748 0.123033 0.169697 -0.0644146 -0.137779 0.100368 0.192073 -0.0544556 0.225075 0.0229423 -0.0345867 0.630398 -0.116523 0.341484 0.107219 0.324476 1.90086 0.120543 1.81811 0.562251 1.86224 1.9785 1.94107 2.21364 0.0746964 -0.0168431 1.89232 1.91568 1.87803 0.504774 2.17075 2.19223 0.0853224 2.12846 2.07482 2.07931 2.18025 1.99878 0.609893 2.08227 1.87691 2.07114 0.125913 1.98543 2.1938 0.52685 2.04803 2.0312 1.91873 1.9754 1.95671 1.83127 2.13471 1.89522 1.84473 1.97238 2.05291 1.84499 -4.90313e-17 1.87897 2.07435 1.99835 2.05833 2.09556 1.99314 2.0904 1.97522 0.324244 2.05348 1.89645 2.19639 2.16701 1.97329 2.21159 1.89074 2.17489 8.42012e-40 1.04226e-40 -3.70205e-40 -7.6272e-36 0.121843</Parameters>
      </PerceptronLayer>
      <ProbabilisticLayer>
         <InputsNumber>1</InputsNumber>
         <NeuronsNumber>91</NeuronsNumber>
         <ActivationFunction>Softmax</ActivationFunction>
         <Parameters>-0.0296602 -0.0303723 -0.0306003 -0.0291906 -0.0299636 -0.0305625 -0.0288696 -0.0290694 -0.0298476 -0.0292389 -0.0302904 -0.0304953 -0.0307467 -0.0308182 -0.0302134 -0.0296526 -0.0304899 -0.0292445 -0.0280859 -0.0292378 -0.0304262 -0.0302666 -0.0289502 -0.0309902 -0.0302826 -0.0293401 -0.0285528 -0.0301948 -0.0321216 -0.0288875 -0.0301876 -0.030666 -0.0283786 -0.028976 -0.0292159 -0.0288818 -0.0307278 -0.0302802 -0.0308839 -0.0290285 -0.0290746 -0.0285577 -0.0307729 -0.0296393 -0.0294496 -0.0306272 -0.0308302 -0.0306613 -0.0320902 -0.0295264 -0.0318939 -0.0278371 -0.0282783 -0.0309217 -0.028111 -0.0296049 -0.0305273 -0.0305661 -0.030307 -0.0313744 -0.031727 -0.0285883 -0.0283273 -0.0290402 -0.0290611 -0.030549 -0.029356 -0.0301604 -0.0306627 -0.0303826 -0.0283362 -0.0320145 -0.0320759 -0.029032 -0.0292859 -0.0313691 -0.0311469 -0.029129 -0.0291711 -0.0308377 -0.0284891 -0.0285987 -0.0319547 -0.0289051 -0.0290391 -0.0295038 -0.0302725 -0.028322 -0.0302947 -0.0308988 -0.0288365 0.0181929 0.0173065 0.0183743 0.0175472 0.0183484 0.0192053 0.0178365 0.0176602 0.0180095 0.0182888 0.0196274 0.0183888 0.0183864 0.0204689 0.0178308 0.0182108 0.0191753 0.0177665 0.0175453 0.0178955 0.0173409 0.0189892 0.0195594 0.0184023 0.0188497 0.018026 0.0188944 0.0184287 0.0177142 0.0175944 0.0179958 0.0178842 0.0200719 0.0183842 0.0184288 0.0177527 0.0179638 0.0188356 0.0188148 0.0175296 0.0176541 0.0179826 0.0179418 0.0185505 0.0199551 0.0183209 0.0189382 0.0181948 0.0190714 0.0186614 0.0177301 0.0178724 0.0179625 0.0178191 0.0184577 0.0184496 0.0181783 0.0203773 0.0173849 0.0192584 0.018749 0.0176915 0.0173352 0.0177599 0.0179836 0.0190869 0.0187571 0.0182193 0.0190104 0.0180223 0.0192257 0.0187652 0.0180167 0.0177913 0.0180721 0.0180934 0.018625 0.0188844 0.0180491 0.019005 0.0173476 0.0192912 0.0184287 0.0175072 0.0173688 0.0177546 0.0181537 0.0193224 0.0200322 0.0176274 0.0179338</Parameters>
         <DecisionThreshold>0.5</DecisionThreshold>
      </ProbabilisticLayer>
   </Layers>
   <Outputs>
      <OutputsNumber>91</OutputsNumber>
      <Output Index="1">column_1_ahead_1</Output>
      <Output Index="2">column_2_ahead_1</Output>
      <Output Index="3">column_3_ahead_1</Output>
      <Output Index="4">column_4_ahead_1</Output>
      <Output Index="5">column_5_ahead_1</Output>
      <Output Index="6">column_6_ahead_1</Output>
      <Output Index="7">column_7_ahead_1</Output>
      <Output Index="8">column_8_ahead_1</Output>
      <Output Index="9">column_9_ahead_1</Output>
      <Output Index="10">column_10_ahead_1</Output>
      <Output Index="11">column_11_ahead_1</Output>
      <Output Index="12">column_12_ahead_1</Output>
      <Output Index="13">column_13_ahead_1</Output>
      <Output Index="14">column_14_ahead_1</Output>
      <Output Index="15">column_15_ahead_1</Output>
      <Output Index="16">column_16_ahead_1</Output>
      <Output Index="17">column_17_ahead_1</Output>
      <Output Index="18">column_18_ahead_1</Output>
      <Output Index="19">column_19_ahead_1</Output>
      <Output Index="20">column_20_ahead_1</Output>
      <Output Index="21">column_21_ahead_1</Output>
      <Output Index="22">column_22_ahead_1</Output>
      <Output Index="23">column_23_ahead_1</Output>
      <Output Index="24">column_24_ahead_1</Output>
      <Output Index="25">column_25_ahead_1</Output>
      <Output Index="26">column_26_ahead_1</Output>
      <Output Index="27">column_27_ahead_1</Output>
      <Output Index="28">column_28_ahead_1</Output>
      <Output Index="29">column_29_ahead_1</Output>
      <Output Index="30">column_30_ahead_1</Output>
      <Output Index="31">column_31_ahead_1</Output>
      <Output Index="32">column_32_ahead_1</Output>
      <Output Index="33">column_33_ahead_1</Output>
      <Output Index="34">column_34_ahead_1</Output>
      <Output Index="35">column_35_ahead_1</Output>
      <Output Index="36">column_36_ahead_1</Output>
      <Output Index="37">column_37_ahead_1</Output>
      <Output Index="38">column_38_ahead_1</Output>
      <Output Index="39">column_39_ahead_1</Output>
      <Output Index="40">column_40_ahead_1</Output>
      <Output Index="41">column_41_ahead_1</Output>
      <Output Index="42">column_42_ahead_1</Output>
      <Output Index="43">column_43_ahead_1</Output>
      <Output Index="44">column_44_ahead_1</Output>
      <Output Index="45">column_45_ahead_1</Output>
      <Output Index="46">column_46_ahead_1</Output>
      <Output Index="47">column_47_ahead_1</Output>
      <Output Index="48">column_48_ahead_1</Output>
      <Output Index="49">column_49_ahead_1</Output>
      <Output Index="50">column_50_ahead_1</Output>
      <Output Index="51">column_51_ahead_1</Output>
      <Output Index="52">column_52_ahead_1</Output>
      <Output Index="53">column_53_ahead_1</Output>
      <Output Index="54">column_54_ahead_1</Output>
      <Output Index="55">column_55_ahead_1</Output>
      <Output Index="56">column_56_ahead_1</Output>
      <Output Index="57">column_57_ahead_1</Output>
      <Output Index="58">column_58_ahead_1</Output>
      <Output Index="59">column_59_ahead_1</Output>
      <Output Index="60">column_60_ahead_1</Output>
      <Output Index="61">column_61_ahead_1</Output>
      <Output Index="62">column_62_ahead_1</Output>
      <Output Index="63">column_63_ahead_1</Output>
      <Output Index="64">column_64_ahead_1</Output>
      <Output Index="65">column_65_ahead_1</Output>
      <Output Index="66">column_66_ahead_1</Output>
      <Output Index="67">column_67_ahead_1</Output>
      <Output Index="68">column_68_ahead_1</Output>
      <Output Index="69">column_69_ahead_1</Output>
      <Output Index="70">column_70_ahead_1</Output>
      <Output Index="71">column_71_ahead_1</Output>
      <Output Index="72">column_72_ahead_1</Output>
      <Output Index="73">column_73_ahead_1</Output>
      <Output Index="74">column_74_ahead_1</Output>
      <Output Index="75">column_75_ahead_1</Output>
      <Output Index="76">column_76_ahead_1</Output>
      <Output Index="77">column_77_ahead_1</Output>
      <Output Index="78">column_78_ahead_1</Output>
      <Output Index="79">column_79_ahead_1</Output>
      <Output Index="80">column_80_ahead_1</Output>
      <Output Index="81">column_81_ahead_1</Output>
      <Output Index="82">column_82_ahead_1</Output>
      <Output Index="83">column_83_ahead_1</Output>
      <Output Index="84">column_84_ahead_1</Output>
      <Output Index="85">column_85_ahead_1</Output>
      <Output Index="86">column_86_ahead_1</Output>
      <Output Index="87">column_87_ahead_1</Output>
      <Output Index="88">column_88_ahead_1</Output>
      <Output Index="89">column_89_ahead_1</Output>
      <Output Index="90">column_90_ahead_1</Output>
      <Output Index="91">column_91_ahead_1</Output>
   </Outputs>
</NeuralNetwork>
