<NeuralNetwork>
    <Inputs>
        <InputsNumber>6</InputsNumber>
        <Item Index="1">
            <Name>longitudinal_center_buoyancy</Name>
            <Units></Units>
            <Description></Description>
        </Item>
        <Item Index="2">
            <Name>prismatic_coefficient</Name>
            <Units></Units>
            <Description></Description>
        </Item>
        <Item Index="3">
            <Name>length_displacement_ratio</Name>
            <Units></Units>
            <Description></Description>
        </Item>
        <Item Index="4">
            <Name>beam_draught_ratio</Name>
            <Units></Units>
            <Description></Description>
        </Item>
        <Item Index="5">
            <Name>length_beam_ratio</Name>
            <Units></Units>
            <Description></Description>
        </Item>
        <Item Index="6">
            <Name>froude_number</Name>
            <Units></Units>
            <Description></Description>
        </Item>
        <Display>1</Display>
    </Inputs>
    <ScalingLayer>
        <ScalingNeuronsNumber>6</ScalingNeuronsNumber>
        <Statistics Index="1">
            <Minimum>-5</Minimum>
            <Maximum>0</Maximum>
            <Mean>-2.38182</Mean>
            <StandardDeviation>1.51322</StandardDeviation>
        </Statistics>
        <Statistics Index="2">
            <Minimum>0.53</Minimum>
            <Maximum>0.6</Maximum>
            <Mean>0.564136</Mean>
            <StandardDeviation>0.02329</StandardDeviation>
        </Statistics>
        <Statistics Index="3">
            <Minimum>4.34</Minimum>
            <Maximum>5.14</Maximum>
            <Mean>4.78864</Mean>
            <StandardDeviation>0.253057</StandardDeviation>
        </Statistics>
        <Statistics Index="4">
            <Minimum>2.81</Minimum>
            <Maximum>5.35</Maximum>
            <Mean>3.93682</Mean>
            <StandardDeviation>0.548193</StandardDeviation>
        </Statistics>
        <Statistics Index="5">
            <Minimum>2.73</Minimum>
            <Maximum>3.64</Maximum>
            <Mean>3.20682</Mean>
            <StandardDeviation>0.247998</StandardDeviation>
        </Statistics>
        <Statistics Index="6">
            <Minimum>0.125</Minimum>
            <Maximum>0.45</Maximum>
            <Mean>0.2875</Mean>
            <StandardDeviation>0.100942</StandardDeviation>
        </Statistics>
        <ScalingMethod>MinimumMaximum</ScalingMethod>
        <Display>1</Display>
    </ScalingLayer>
    <MultilayerPerceptron>
        <Architecture>6 30 1</Architecture>
        <LayersActivationFunction>HyperbolicTangent Linear</LayersActivationFunction>
        <Parameters>1.49991 0.214174 -1.58637 -1.52112 -0.632161 1.92026 0.186967 0.698401 -1.7247 -0.636466 1.32267 0.00221624 1.25167 -0.546332 -0.131178 1.30205 -0.3758 1.77565 0.53357 -1.15173 1.07075 0.400971 -0.282179 0.495996 1.28332 -1.20329 1.70409 -0.53309 0.886554 -1.35102 1.42796 0.658443 -0.561077 -2.23147 0.391161 0.594882 1.6407 -0.938674 0.398044 -0.192966 0.0936913 0.0133025 -0.723935 1.67504 0.109003 -1.32093 -0.649747 -0.623761 0.533957 -2.15403 -0.51219 0.336838 0.516206 0.611591 0.156363 1.81957 2.66702 -1.90758 1.1068 1.57035 1.62096 0.874076 1.61168 0.375684 0.61335 -0.674389 2.55709 1.57641 -0.732757 -0.252633 -1.24881 0.107662 -0.871546 0.222925 0.829261 -1.75824 1.42825 -0.0260155 -0.614809 -1.38397 -1.37202 -0.827968 -0.795706 1.35087 0.0175899 0.696153 -0.907551 1.23782 0.516916 0.0529531 -0.272265 0.929536 -2.57162 -1.12739 0.411243 -0.847056 -0.464442 0.353301 0.184667 -0.0798717 -0.250622 -0.824786 0.000513071 0.871245 -2.1073 3.24334 1.0681 1.42392 -0.0531082 1.86798 -0.0878066 -1.98621 -1.25461 0.479583 2.33845 0.336924 -0.159644 -1.87302 -0.315338 0.206119 -0.0385726 -0.0332586 0.821911 0.485432 -0.994478 0.304873 -2.61444 -0.817248 -1.12518 -0.328377 -1.08848 0.491537 1.64621 -0.050805 -2.34559 -0.45861 -0.657845 -0.983893 0.941283 -0.671529 2.68196 -0.140518 -1.01583 -0.0705922 0.182712 0.387235 0.105921 -0.969378 0.892588 -0.0477602 0.939943 0.179687 0.626162 0.401183 -2.06775 -0.00640281 -0.0850733 0.0982534 0.0733307 0.0924505 1.92237 1.12727 1.12164 -0.320921 0.846813 -2.36088 1.00866 -0.122247 0.279682 2.48881 0.675912 0.815812 -0.430792 -1.62892 0.84991 0.0683427 1.73584 -0.367892 -1.44192 0.332677 -0.911429 -0.501608 -1.83227 0.403356 1.3618 2.54254 -0.820491 0.509792 0.940632 0.209152 -1.42803 0.337961 1.35482 -0.331321 0.99101 -0.67209 1.12942 0.0208218 0.489726 0.299909 0.830339 0.456389 -2.58619 -0.878497 1.06112 -1.52148 -0.606087 0.601003 2.71048 0.849389 -1.11987 -0.231205 -0.0804584 0.345096 -0.596326 -0.33451 0.0854497 0.767037 -0.338907 0.0405021 0.440475 0.109588 -0.0201107 -0.450019 -0.158955 -0.0478675 -0.478413 -0.10197 -0.0541363 -0.818651 0.504823 1.87605 -0.87501 2.36261 0.13959 0.428049 -0.138389 0.19265 1.11594 0.134377 -0.0235303</Parameters>
        <Display>1</Display>
    </MultilayerPerceptron>
    <UnscalingLayer>
        <UnscalingNeuronsNumber>1</UnscalingNeuronsNumber>
        <Statistics Index="1">
            <Minimum>0.01</Minimum>
            <Maximum>62.42</Maximum>
            <Mean>10.4954</Mean>
            <StandardDeviation>15.1605</StandardDeviation>
        </Statistics>
        <UnscalingMethod>MinimumMaximum</UnscalingMethod>
        <Display>1</Display>
    </UnscalingLayer>
    <Outputs>
        <OutputsNumber>1</OutputsNumber>
        <Item Index="1">
            <Name>residuary_resistance</Name>
            <Units></Units>
            <Description></Description>
        </Item>
        <Display>1</Display>
    </Outputs>
    <Display>1</Display>
</NeuralNetwork>
