<NeuralNetwork>
   <Inputs>
      <InputsNumber>2</InputsNumber>
      <Input Index="1">Passengers_lag_1</Input>
      <Input Index="2">Passengers_lag_0</Input>
   </Inputs>
   <Layers>
      <LayersTypes>Scaling Recurrent Perceptron Unscaling Bounding</LayersTypes>
      <ScalingLayer>
         <ScalingNeuronsNumber>2</ScalingNeuronsNumber>
         <ScalingNeuron Index="1">
            <Minimum>104</Minimum>
            <Maximum>622</Maximum>
            <Mean>278.458</Mean>
            <StandardDeviation>119.767</StandardDeviation>
            <Scaler>MinimumMaximum</Scaler>
         </ScalingNeuron>
         <ScalingNeuron Index="2">
            <Minimum>104</Minimum>
            <Maximum>622</Maximum>
            <Mean>280.415</Mean>
            <StandardDeviation>119.298</StandardDeviation>
            <Scaler>MinimumMaximum</Scaler>
         </ScalingNeuron>
      </ScalingLayer>
      <RecurrentLayer>
         <InputsNumber>2</InputsNumber>
         <NeuronsNumber>32</NeuronsNumber>
         <ActivationFunction>HyperbolicTangent</ActivationFunction>
         <Parameters>0.0084036 -0.00737584 0.00978834 -0.00956327 -0.00859998 0.00739441 0.00906332 0.00726086 0.00607599 -0.00870073 -0.00960517 0.00828332 -0.00742489 -0.00803549 0.000714944 0.0088118 -0.00909041 0.00703484 -0.0088428 -0.00868443 0.00902678 -0.0072655 -0.0079468 -0.00777145 -0.00722687 0.00895945 -0.0096252 0.00901813 -0.00787246 -0.00679532 0.006772 0.00742817 0.0491662 0.165654 -0.0499095 -0.167138 0.0509535 0.176529 -0.0505335 -0.172309 -0.0517104 -0.173612 0.0492095 0.16498 0.0505306 0.171252 0.0481573 0.162505 0.0482632 0.159431 -0.0506871 -0.172491 -0.0506314 -0.175327 0.0492741 0.165567 -0.0491651 -0.163041 -0.0501623 -0.169325 0.0350133 0.108328 0.0516958 0.174255 -0.0500807 -0.17269 0.0487078 0.162576 -0.0521602 -0.176558 -0.0510024 -0.173223 0.0518059 0.175884 -0.0485682 -0.161761 -0.0493729 -0.167556 -0.0509323 -0.17017 -0.0484002 -0.162196 0.0500272 0.169299 -0.0503305 -0.172296 0.0520954 0.17674 -0.0498522 -0.166686 -0.0510106 -0.168396 0.0491088 0.161773 0.0489968 0.163649 2.70717e-06 -3.67939e-06 3.08079e-06 -3.28023e-06 2.92681e-06 -1.35432e-06 2.99991e-07 -3.27097e-06 -1.50243e-07 -2.81196e-06 -8.04241e-08 -3.18794e-06 -3.07774e-06 2.62334e-06 -5.23863e-07 8.83325e-07 3.6657e-06 -2.97932e-07 2.59558e-07 1.11504e-06 -1.24071e-07 -1.17458e-06 9.44015e-08 2.35135e-06 2.11307e-06 1.71686e-06 -1.13578e-06 8.55148e-07 4.24847e-07 1.60611e-06 -2.92221e-06 -1.12262e-06 2.75227e-06 9.6745e-07 1.08235e-06 -9.28632e-07 -1.15074e-06 -3.55545e-06 5.89135e-07 8.05503e-07 1.71134e-07 3.1598e-06 -1.3961e-06 1.8232e-06 -3.30591e-06 1.31667e-06 2.40197e-07 -2.28777e-06 2.25746e-06 3.15649e-06 3.57869e-06 -2.72696e-06 -9.07479e-09 -2.61268e-06 2.45143e-06 1.93216e-06 3.26202e-06 -1.40601e-06 2.99635e-07 -3.09969e-06 -4.40753e-07 3.35864e-06 1.92024e-07 -1.52537e-06 5.5214e-07 -1.04155e-06 -2.13436e-07 -2.08327e-06 2.01112e-06 -3.07678e-06 1.11597e-06 1.57911e-06 3.2146e-06 2.0247e-07 -3.07879e-06 4.94563e-07 7.07763e-07 1.99511e-06 2.81688e-06 2.66566e-06 2.22564e-06 -6.07104e-07 9.27906e-07 -2.16777e-06 -2.38065e-06 1.01556e-06 -3.0094e-06 2.91728e-06 -4.87438e-07 -2.7938e-06 -1.82622e-06 -1.02976e-06 1.95509e-06 -2.00379e-06 1.93749e-06 -3.61875e-06 -1.37297e-06 3.22162e-06 2.98018e-06 2.27654e-06 -1.58542e-06 3.1393e-06 -1.76308e-06 7.28716e-07 2.08571e-06 -4.39706e-07 -3.71363e-06 1.52419e-06 3.26641e-06 -2.26699e-06 -3.36834e-06 1.38006e-06 3.49486e-07 3.54279e-06 -3.04279e-06 1.93991e-06 8.49809e-07 -1.74592e-06 1.28729e-06 2.67751e-06 -3.07232e-06 -1.43579e-07 -1.56536e-06 2.222e-06 -1.92233e-06 -2.59212e-06 1.73992e-06 -9.85411e-08 2.90652e-06 1.48206e-06 1.2583e-06 1.44131e-06 3.51774e-06 -3.35642e-06 1.0597e-06 -1.23748e-06 8.78478e-07 2.07433e-06 -2.1634e-07 1.33147e-06 -1.62194e-06 -2.93559e-06 -1.46131e-06 5.50267e-07 -3.07512e-06 -1.94988e-06 -2.15877e-06 -3.5681e-06 2.78947e-06 6.84185e-07 1.13798e-06 -2.55599e-06 -2.41896e-06 -1.52518e-06 1.21648e-06 -3.05485e-06 3.98461e-07 -5.66112e-07 -3.06797e-06 2.88188e-07 6.00671e-07 6.06278e-07 1.6652e-06 2.10369e-06 2.82711e-06 -3.32754e-06 1.7487e-06 2.43255e-06 -3.15088e-07 -1.81962e-06 -2.77745e-06 -1.1105e-06 2.1728e-06 1.82808e-06 1.13731e-06 -1.69694e-06 3.11144e-06 -4.72113e-07 -3.32938e-06 4.28679e-07 3.67099e-06 -1.75895e-06 2.53597e-06 -2.92363e-06 -3.91323e-07 -3.21798e-06 8.9843e-07 -1.81147e-06 -1.08526e-06 2.52107e-06 -2.38725e-06 2.52672e-06 -2.82507e-06 -2.87663e-06 -1.97623e-06 -1.37611e-06 -3.48026e-06 9.95289e-07 -2.1453e-06 2.5571e-06 2.08269e-06 -2.4984e-06 2.3059e-06 3.14254e-06 7.41241e-07 -1.9707e-07 2.34562e-06 -9.73025e-07 -3.48169e-06 -8.02205e-07 2.88542e-06 -1.55471e-06 3.57009e-06 -3.54249e-06 1.91758e-06 2.95432e-06 -2.80047e-06 2.92168e-06 8.63874e-07 1.35907e-06 -1.76752e-06 -1.51316e-06 -3.05702e-06 3.00608e-06 1.63436e-06 -6.77708e-07 6.56661e-07 2.78079e-06 -7.20372e-07 6.38321e-07 -4.01906e-07 3.54811e-06 3.08425e-07 -7.49863e-07 7.17028e-07 3.33991e-06 2.32204e-06 1.60233e-06 -1.97128e-06 -1.47011e-06 2.63912e-06 1.63847e-07 -2.04599e-06 -1.86884e-07 2.1897e-06 1.4757e-06 1.11979e-06 3.27176e-07 2.85728e-06 -2.06757e-07 -1.29224e-06 -3.05843e-06 2.68848e-06 2.00053e-06 8.31301e-07 -3.04143e-06 -3.25793e-06 -2.31013e-06 -8.05182e-07 -7.68108e-07 3.40011e-06 2.13116e-06 3.43626e-07 1.24598e-06 -2.52819e-06 -3.63589e-07 1.98716e-06 -1.39503e-06 4.82195e-08 -3.66265e-06 -3.24745e-06 -1.10252e-06 -1.39857e-06 2.5355e-06 1.98315e-06 1.60681e-06 -8.80427e-07 -1.99939e-06 -1.67229e-07 3.06457e-06 2.90388e-06 -3.10427e-06 1.08627e-06 2.58349e-07 1.61732e-06 -1.15725e-06 -1.71524e-06 7.04584e-07 -1.55081e-06 1.92713e-06 -2.26571e-07 -2.53453e-06 8.67119e-07 -2.11391e-06 -1.23675e-06 -2.16719e-06 1.83202e-07 -7.33479e-07 2.43934e-06 -1.81294e-06 1.62655e-06 3.4527e-06 -2.45476e-06 1.01773e-06 2.04142e-06 3.35031e-06 -3.55769e-07 3.41648e-06 1.11654e-06 9.97218e-07 3.12488e-06 1.59317e-06 1.98873e-06 7.68574e-07 1.40825e-06 -4.9694e-07 -1.09537e-06 -2.31037e-06 -1.54264e-06 -2.49349e-07 -3.58508e-06 -3.54143e-06 2.71568e-06 2.02842e-06 -1.65494e-06 3.27765e-06 -1.15007e-06 1.65885e-06 3.66605e-06 3.17036e-06 1.15724e-08 -1.05221e-06 -2.84958e-07 -1.32414e-06 -2.537e-06 -2.75072e-06 -2.92631e-06 -3.33443e-06 -4.82157e-07 2.8525e-08 -1.56779e-07 -3.47202e-06 -9.02038e-07 1.1258e-08 7.63521e-07 7.17006e-08 2.15638e-06 2.49539e-07 -1.76859e-06 5.03467e-07 1.01586e-06 6.7538e-07 -1.20271e-06 -1.94214e-07 2.52636e-06 -2.15887e-06 2.20906e-06 -2.76324e-06 2.52655e-06 -2.29131e-06 -7.64574e-07 -1.54544e-06 1.7202e-06 3.22035e-07 1.59719e-06 2.80891e-06 -1.19122e-06 9.79262e-07 8.46909e-07 3.25553e-06 -3.07056e-06 3.52452e-06 1.57793e-06 9.74027e-07 3.48375e-06 1.24504e-06 3.41432e-06 2.69693e-06 9.4815e-09 3.2166e-06 3.02168e-06 2.5406e-06 3.53271e-06 1.51437e-06 2.18968e-06 -2.195e-06 2.81645e-06 2.0109e-06 -3.61798e-06 -3.5189e-06 2.22997e-06 -5.39139e-07 -3.52519e-06 -1.009e-06 1.29964e-06 -3.13343e-06 -5.62495e-07 3.40555e-07 1.80031e-06 2.28851e-06 -3.03082e-06 3.6658e-06 3.69081e-06 -1.10109e-06 -2.46181e-06 1.75694e-06 2.26746e-07 -3.41396e-07 2.69948e-06 -1.2434e-06 6.64229e-07 -3.211e-06 1.6385e-06 -2.70544e-07 1.46743e-06 -9.16229e-07 -6.04879e-07 2.92751e-06 1.32273e-06 -2.91745e-06 1.61189e-06 -3.70132e-06 3.07825e-06 -2.99319e-06 1.08761e-06 7.34477e-07 1.60872e-06 5.36588e-07 6.29777e-08 -1.31333e-06 -2.7662e-06 -2.62869e-06 2.17411e-06 -2.1822e-06 3.54404e-06 3.39872e-06 9.47693e-07 1.84507e-06 8.6438e-07 3.29816e-06 2.37145e-06 -2.51109e-06 -3.35028e-06 1.64405e-06 -2.90041e-06 3.58472e-06 3.08885e-06 -3.46538e-06 1.44354e-06 2.42685e-06 -2.52111e-06 -2.11733e-06 1.34667e-06 -9.70948e-08 7.48429e-07 1.50199e-06 -4.18068e-08 -3.35128e-06 -3.54144e-07 3.57716e-06 2.61106e-06 -1.48332e-06 3.3423e-06 3.693e-06 -4.04386e-07 -2.70772e-06 -3.28113e-06 -2.94602e-07 2.57221e-06 -2.53259e-06 1.12613e-08 -3.22037e-06 2.19473e-06 -2.19496e-06 -3.14743e-06 -3.52334e-06 -4.66754e-07 -3.46343e-06 -2.99063e-07 3.1913e-06 6.24975e-07 2.70819e-06 -3.21014e-07 -5.41891e-07 1.08111e-06 -3.50504e-06 3.64972e-06 7.06498e-07 -1.72278e-06 -1.08276e-06 1.46918e-06 7.85801e-07 -1.40033e-06 1.25756e-06 -6.74474e-07 2.77515e-07 -1.9138e-06 3.42265e-06 -1.78198e-07 2.71672e-06 3.22503e-07 3.62786e-07 -2.37658e-06 6.73532e-07 -2.03625e-06 2.93711e-06 -2.89183e-06 -4.19414e-07 -3.38342e-06 -1.1076e-06 2.76895e-06 -2.33168e-06 1.2534e-07 -1.49072e-07 3.176e-06 -5.29604e-07 -1.39429e-06 -1.82949e-06 3.31446e-06 3.46979e-06 -2.67673e-06 1.89982e-06 -5.34511e-08 -3.05951e-06 1.5431e-06 1.55251e-06 -6.90643e-07 2.23175e-06 2.56713e-06 -4.26509e-07 1.52501e-06 2.35334e-07 -6.72118e-07 7.61244e-07 -1.0346e-06 -2.72312e-06 -3.60314e-06 -1.6561e-06 2.17606e-06 2.17633e-06 -1.92843e-06 1.97932e-06 -5.57724e-07 1.79673e-06 -8.22978e-07 1.67416e-06 -2.60295e-06 -1.9076e-06 -1.06418e-06 2.86959e-06 -3.50689e-06 2.64014e-06 1.82624e-06 -3.07568e-06 -3.04857e-06 -6.77276e-07 2.46678e-06 2.18245e-06 5.24062e-07 1.19833e-06 -8.23627e-07 3.1998e-06 -5.30099e-07 -2.58463e-06 -2.94718e-06 -3.01899e-06 -1.82426e-07 -2.57924e-06 2.34492e-07 3.50655e-06 3.60739e-06 -1.9708e-06 -1.50417e-06 -2.23185e-06 -2.97603e-06 -7.73697e-07 4.86736e-07 -1.799e-06 3.07577e-06 -1.91091e-06 -5.91207e-07 1.91774e-06 1.99061e-07 -2.652e-06 -2.21848e-06 1.98582e-06 3.41084e-06 3.00034e-06 -4.06434e-07 -7.88666e-07 -1.90747e-06 2.46422e-06 -2.01352e-07 -8.93515e-07 3.57749e-07 1.96925e-06 -1.81355e-06 2.83547e-06 1.28541e-06 3.32673e-06 9.3897e-07 -2.16909e-06 1.99708e-06 -1.75697e-06 -2.81379e-07 1.24746e-06 7.38272e-07 2.11295e-06 2.86188e-06 -1.33403e-06 -1.9966e-06 -2.71041e-06 -2.83055e-06 2.02669e-06 -3.38798e-07 3.90168e-07 -3.11893e-06 2.39651e-06 2.21038e-06 -1.89812e-06 -1.63702e-06 -3.19274e-06 -6.78648e-08 2.76941e-06 -2.48423e-06 -1.2795e-06 -2.3276e-06 1.96295e-06 -3.2056e-07 3.2175e-06 2.40785e-06 1.27502e-06 7.97416e-07 2.20842e-06 -3.68382e-07 1.70527e-06 3.32787e-06 -1.62811e-06 -1.10872e-06 -7.75609e-07 1.07407e-06 1.85538e-06 -1.20903e-06 3.52762e-06 -3.50117e-06 3.27575e-06 2.69809e-07 1.10925e-06 -5.82721e-07 2.66945e-06 1.13836e-07 -3.94119e-07 -3.48255e-06 -1.54762e-07 -3.0238e-06 -2.24834e-06 -3.70781e-06 3.06965e-06 1.36656e-06 2.72061e-06 -1.64304e-06 -1.43268e-06 9.37674e-08 -1.39966e-06 -1.81737e-06 -2.59062e-06 3.52007e-07 2.39172e-06 3.26849e-06 -1.95367e-06 -6.41747e-08 3.68891e-07 9.00823e-07 3.59181e-06 1.31979e-06 -2.407e-06 1.50157e-06 -1.00138e-06 -2.08694e-06 2.59453e-06 1.82814e-06 -3.00278e-06 -1.93922e-06 2.76439e-06 -1.04262e-06 -9.59955e-07 3.76828e-07 -3.42618e-06 3.65188e-06 2.71788e-06 7.33591e-07 -2.56951e-06 -1.8658e-06 -2.64424e-06 -3.38284e-06 1.46879e-06 2.34999e-06 -1.69471e-06 2.23061e-06 -3.16675e-06 6.32679e-07 2.47977e-06 2.83532e-06 -6.07017e-07 -3.27769e-06 -3.3261e-06 3.1553e-06 -2.59252e-07 1.18502e-06 -1.93537e-06 1.24938e-06 -6.90125e-07 -3.42168e-06 -1.36449e-06 -1.32469e-06 -1.97556e-06 3.05303e-06 6.41076e-07 -3.08451e-06 -1.81909e-08 8.12651e-07 8.81071e-08 1.56127e-06 -3.45331e-06 2.75731e-06 1.39534e-06 -4.1776e-07 9.58636e-08 -3.6068e-06 1.92384e-06 -2.49946e-06 -1.0273e-06 -3.68439e-06 -2.53161e-07 -2.93313e-06 -3.59434e-06 1.16618e-06 5.05343e-07 3.41999e-06 3.2476e-06 -8.54807e-07 2.59891e-06 1.98509e-06 -5.89182e-07 1.8431e-06 3.18991e-06 -1.28369e-06 4.86081e-07 -1.58726e-06 -3.22424e-06 9.69543e-07 5.36075e-08 2.23278e-06 1.97196e-06 -3.60122e-06 -1.68186e-06 9.34446e-07 -1.65795e-06 -3.45761e-07 -1.68478e-06 -3.51767e-06 2.26135e-06 2.3578e-06 3.00679e-06 -1.56113e-06 8.50397e-07 -3.4154e-07 -2.25737e-06 7.63495e-07 1.85667e-06 2.96521e-06 -3.48123e-06 -1.21542e-06 6.26723e-07 -2.84543e-06 2.47648e-06 2.17846e-06 3.06562e-06 -3.40191e-06 -1.71595e-06 -3.2867e-06 2.53427e-06 2.57253e-06 2.57087e-06 3.53494e-06 -2.64974e-06 1.6974e-06 3.4783e-06 3.26506e-06 -1.21205e-06 2.62489e-07 -1.12414e-06 1.1815e-07 -2.32153e-06 -2.54604e-06 -1.74208e-06 -3.38281e-08 2.63903e-06 3.30397e-06 1.1883e-06 3.03607e-07 -6.7683e-07 -3.25139e-06 5.68503e-08 3.20896e-06 3.064e-06 -3.43796e-06 -4.88605e-07 5.03117e-07 2.63773e-06 -2.33706e-07 -3.12202e-06 1.95905e-06 -3.47312e-06 -2.8542e-06 -2.68061e-06 -3.56807e-06 1.80796e-06 -1.58617e-06 5.43575e-07 -1.96591e-06 -7.93224e-07 2.74631e-06 3.28622e-06 7.58933e-07 -1.52398e-06 2.17661e-06 -1.0754e-06 1.09985e-06 2.71536e-06 -1.34308e-06 3.40177e-06 6.463e-07 3.2611e-06 3.65361e-06 -3.54613e-08 5.60319e-07 -6.3984e-07 5.37119e-07 2.59302e-06 3.18281e-06 3.19233e-06 2.48386e-06 -3.1566e-06 3.13256e-06 2.67121e-06 1.31923e-07 2.5925e-06 -1.645e-06 -1.70004e-06 -1.19254e-06 2.76662e-06 2.79107e-06 -3.23801e-06 -1.06313e-06 -2.87507e-06 2.8137e-06 -3.022e-06 4.47489e-07 -5.5591e-07 1.78631e-06 -6.84646e-07 -3.55849e-06 -1.92102e-07 -1.29545e-06 -1.13135e-06 -3.81966e-07 -3.40839e-07 8.99202e-07 1.80512e-06 -1.63774e-07 4.39194e-07 -2.24134e-06 2.98655e-06 5.87182e-07 1.33441e-06 -3.65933e-06 1.05135e-06 2.78407e-06 -1.55901e-06 5.32874e-07 -3.56299e-06 1.93318e-06 -3.67758e-06 -2.06886e-06 -3.30154e-06 8.37101e-07 1.88981e-06 -6.89014e-07 -2.61114e-06 7.91192e-08 -3.19836e-06 1.79683e-06 -1.19122e-06 -1.97568e-06 -4.37734e-07 2.31732e-06 -2.11025e-06 -6.1267e-07 -2.29505e-06 -7.24575e-07 1.20522e-06 -1.99636e-06 2.7815e-06 -2.38297e-06 -2.62033e-06 -1.00013e-06 1.20055e-06 -2.45001e-07 2.04716e-06 1.62489e-06 8.59865e-07 -2.28312e-06 2.69023e-06 1.03375e-06 -3.98384e-07 5.76504e-07 -2.41002e-06 3.51833e-06 7.63379e-07 1.61281e-06 9.21342e-07 3.07322e-06 -2.00074e-06 5.84847e-07 8.50449e-07 2.50215e-06 3.23877e-06 4.96009e-07 1.7016e-06 -2.98615e-06 2.61534e-06 -2.08553e-06 -3.53492e-06 -3.51224e-06 3.48311e-06 -2.73591e-06 7.96585e-07 -3.19472e-06 -2.72905e-06 1.62265e-06 1.95737e-06 -1.45229e-06 2.39356e-06 2.89886e-06 -1.50126e-06 -1.58469e-06 -3.55392e-06 -1.98974e-06 -1.3172e-06 -4.74383e-09 -1.85973e-06 2.28133e-06 -1.68146e-06 -1.78493e-06 -2.33623e-06 -2.55592e-06 -1.6331e-06 -3.63894e-07 2.78261e-06 5.99809e-07 1.2173e-06 2.99374e-06 3.27803e-06 -1.20315e-06 1.97776e-06 2.12782e-06 2.46528e-06 2.14309e-06 2.52399e-06 2.18081e-06 3.29859e-07 -2.5995e-06 -2.17755e-06 6.86426e-07 1.85375e-06 2.93918e-06 -8.1606e-07 -1.99967e-06 2.89725e-06 -4.61004e-07 -1.00624e-07 3.39626e-06 -2.90133e-06 -2.62659e-06 -4.35855e-07 -1.83311e-06 4.9593e-07 -1.18084e-06 -1.71821e-07 -7.47279e-07 -3.51297e-06 -1.36755e-06 -8.03669e-07 -1.21093e-07 -1.58423e-06 3.68263e-06 3.2211e-06 -2.71199e-06 -1.27188e-06 -1.07759e-06 3.63002e-06 2.62192e-06 1.4674e-06 -2.85942e-06 2.08452e-06 -1.66009e-06 -3.04999e-06 2.98581e-06 2.29492e-06 -2.10379e-06 5.053e-07 -6.28583e-07 1.88732e-06 2.58068e-06 -2.19568e-07 1.25191e-06 -3.19813e-06 2.39419e-06 -1.17291e-06 3.49719e-06 -4.58534e-07 1.71202e-06 3.66999e-06</Parameters>
      </RecurrentLayer>
      <PerceptronLayer>
         <LayerName>perceptron_layer</LayerName>
         <InputsNumber>32</InputsNumber>
         <NeuronsNumber>1</NeuronsNumber>
         <ActivationFunction>HyperbolicTangent</ActivationFunction>
         <Parameters>-0.0145342 0.17754 -0.17922 0.189431 -0.184651 -0.186199 0.176894 0.183414 0.174127 0.170981 -0.185311 -0.188262 0.177364 -0.175062 -0.181551 0.115749 0.187074 -0.185256 0.174335 -0.189677 -0.186208 0.189321 -0.173569 -0.179831 -0.182731 -0.173955 0.181136 -0.184701 0.190117 -0.178685 -0.180731 0.173936 0.175844</Parameters>
      </PerceptronLayer>
      <UnscalingLayer>
         <UnscalingNeuronsNumber>1</UnscalingNeuronsNumber>
         <Descriptives Index="1">
            <Minimum>104</Minimum>
            <Maximum>622</Maximum>
            <Mean>282.627</Mean>
            <StandardDeviation>119.176</StandardDeviation>
            <Scaler>MinimumMaximum</Scaler>
         </Descriptives>
      </UnscalingLayer>
      <BoundingLayer>
         <BoundingNeuronsNumber>1</BoundingNeuronsNumber>
         <Item Index="1">
            <LowerBound>-3.40282e+38</LowerBound>
            <UpperBound>3.40282e+38</UpperBound>
         </Item>
         <UseBoundingLayer>1</UseBoundingLayer>
      </BoundingLayer>
   </Layers>
   <Outputs>
      <OutputsNumber>1</OutputsNumber>
      <Output Index="1">Passengers_ahead_1</Output>
   </Outputs>
</NeuralNetwork>
