<NeuralNetwork>
   <Inputs>
      <InputsNumber>2</InputsNumber>
      <Input Index="1">Passengers_lag_1</Input>
      <Input Index="2">Passengers_lag_0</Input>
   </Inputs>
   <Layers>
      <LayersTypes>Scaling LongShortTermMemory Perceptron Unscaling Bounding</LayersTypes>
      <ScalingLayer>
         <ScalingNeuronsNumber>2</ScalingNeuronsNumber>
         <ScalingNeuron Index="1">
            <Minimum>104</Minimum>
            <Maximum>622</Maximum>
            <Mean>278.458</Mean>
            <StandardDeviation>119.767</StandardDeviation>
            <Scaler>MinimumMaximum</Scaler>
         </ScalingNeuron>
         <ScalingNeuron Index="2">
            <Minimum>104</Minimum>
            <Maximum>622</Maximum>
            <Mean>280.415</Mean>
            <StandardDeviation>119.298</StandardDeviation>
            <Scaler>MinimumMaximum</Scaler>
         </ScalingNeuron>
      </ScalingLayer>
      <LongShortTermMemoryLayer>
         <LayerName>long_short_term_memory_layer</LayerName>
         <InputsNumber>2</InputsNumber>
         <NeuronsNumber>16</NeuronsNumber>
         <TimeStep>3</TimeStep>
         <ActivationFunction>HyperbolicTangent</ActivationFunction>
         <RecurrentActivationFunction>Linear</RecurrentActivationFunction>
         <Parameters>-6.07556e-05 -6.05434e-05 -5.01819e-05 5.789e-05 0.00011462 -2.43381e-05 5.24273e-05 -4.0918e-05 5.53415e-05 6.65909e-05 -1.71049e-05 8.66146e-05 0.0266115 0.000883006 1.4442e-05 -4.74285e-05 3.31774e-05 -0.000982234 5.44113e-05 0.000316276 -0.000609482 -8.61732e-05 3.83996e-05 2.51502e-05 -6.31235e-05 -8.14704e-05 9.38739e-05 -0.000343454 -0.398214 0.00304357 6.30437e-05 1.29845e-06 3.46816e-05 -0.00057397 6.05326e-05 -4.45911e-05 0.000371663 -2.62701e-05 -0.000281431 0.000104737 -8.99586e-06 2.56362e-05 0.000185332 0.000473097 -0.38667 -0.00463523 8.02071e-05 -8.39932e-05 -0.000117825 -0.00057417 0.000107704 -0.000199516 0.000337941 5.0377e-05 1.66893e-05 1.86392e-05 -2.41973e-05 -7.96048e-05 5.77025e-05 -0.00054235 -0.544613 -0.00483596 7.16105e-05 0.000234726 -6.63017e-05 -6.63078e-05 0.000102449 0.000124309 -9.79688e-06 -1.62055e-06 9.14506e-05 -2.45848e-05 -0.000102813 -8.36471e-06 -7.32728e-05 -2.50074e-05 -5.02078e-05 6.38123e-05 6.36592e-07 6.8515e-05 -2.68437e-05 4.43611e-06 -6.31888e-05 7.1662e-05 4.37564e-05 3.80307e-05 -4.0726e-05 -7.22593e-05 0.109466 -0.194892 -0.00123775 0.00184209 6.34179e-06 9.86534e-06 -2.16259e-05 6.44098e-05 -4.44742e-05 2.38267e-05 0.000831295 0.000452809 1.0666e-06 -0.000136435 -0.000390885 -0.000419748 0.000483874 0.000452436 -6.63793e-05 6.31505e-05 1.3086e-05 7.64917e-06 1.41865e-05 6.32178e-05 -2.02412e-05 3.33225e-06 1.74239e-06 5.73716e-05 -4.27882e-05 -8.15639e-05 0.000297524 0.000244268 0.133526 0.506219 -0.00344433 0.00127142 6.60217e-05 -6.65621e-05 0.000125378 5.12822e-06 -4.54563e-05 5.45941e-05 0.000483763 0.000231483 2.78695e-05 4.74224e-05 8.89599e-05 -9.72718e-06 -0.000399503 -0.000253918 -5.52827e-05 -3.57557e-05 0.000313651 0.000274899 3.05122e-05 -3.36995e-05 -6.16382e-05 4.35368e-05 -7.54058e-05 2.60082e-05 -0.000141335 -0.000276009 -0.000327212 -0.000312627 0.1183 0.512404 0.00468453 -0.00012377 -2.59149e-05 5.6795e-05 -1.94601e-05 -1.16776e-05 0.000193134 7.77637e-05 0.00062462 0.000429855 2.12356e-06 -2.60762e-05 9.04407e-05 9.12871e-05 -0.000325628 -0.00031881 -4.67071e-06 5.44393e-05 2.3035e-05 -1.33392e-05 4.49518e-05 2.22255e-05 8.03402e-05 -7.56877e-06 -9.7551e-06 -3.82878e-05 -7.61149e-05 -0.000102479 0.000272699 0.000276107 0.213946 0.554957 0.00148528 0.00759456 2.26263e-05 -2.78162e-05 -0.000300589 -0.000278522 6.53127e-06 -4.93446e-05 -4.15916e-05 4.61064e-05 2.48712e-05 -1.16846e-05 -3.48746e-05 -1.03938e-05 -5.92785e-05 -3.39137e-05 1.54473e-05 -2.18278e-05 4.23785e-05 -2.0281e-05 6.32029e-05 -3.51562e-05 4.08863e-05 -3.47576e-05 7.00702e-05 5.42012e-06 2.99977e-05 3.36793e-05 6.99135e-05 4.28409e-05 -5.7748e-05 6.89618e-05 3.82098e-05 -2.28179e-06 1.87062e-05 -1.5843e-05 -5.2206e-05 -1.13875e-05 6.50495e-05 4.5784e-05 1.68519e-05 -6.98457e-05 -3.54132e-05 -4.06135e-05 -2.225e-05 1.01579e-05 4.23265e-05 -2.45125e-05 -2.78567e-05 -4.80629e-05 -1.82301e-05 -9.56871e-06 -6.17844e-05 -6.51441e-05 -6.14552e-05 6.44759e-05 7.18749e-05 -5.27932e-05 -2.8058e-05 6.91654e-05 3.54265e-06 -3.87879e-05 7.67445e-06 1.17129e-06 2.42449e-05 2.74744e-05 -6.40766e-05 5.13099e-05 3.22478e-05 -7.06048e-05 5.19537e-05 -2.34371e-05 -1.27698e-05 7.5107e-05 4.54201e-05 7.15767e-05 -2.56242e-05 7.00667e-05 5.16989e-05 3.23308e-05 1.90137e-05 2.4131e-05 1.55304e-06 -1.86864e-05 3.22005e-05 6.67889e-05 -5.70162e-05 5.25809e-05 3.56111e-05 -1.81459e-05 1.3238e-05 4.70253e-05 -3.29566e-05 6.43195e-05 5.67229e-05 3.77323e-05 -1.31446e-05 2.5578e-05 -2.9214e-05 -4.25584e-05 -1.92494e-05 1.76164e-05 -5.23459e-05 -6.12865e-05 -7.29543e-05 -3.44765e-05 -5.05952e-05 4.95553e-05 -1.4901e-05 4.15784e-05 1.03667e-05 -2.58074e-05 -2.97776e-06 1.82161e-05 -3.84307e-05 -2.30007e-05 -1.00813e-05 1.64007e-05 -3.382e-05 1.27727e-05 6.49249e-06 -6.59307e-05 2.88201e-05 1.18301e-05 -5.89756e-05 7.04278e-05 -1.36534e-05 -5.00055e-06 -1.69692e-05 -7.16942e-05 -1.98179e-05 2.6173e-05 7.08548e-05 -1.51748e-05 5.13904e-05 3.58362e-05 1.98958e-05 -7.55925e-05 4.08443e-05 -4.5787e-05 -6.00273e-05 -5.57689e-05 -2.59845e-05 5.14857e-05 2.8965e-05 -8.21678e-06 -1.9039e-05 -5.37831e-05 -3.68841e-05 5.51479e-05 -6.53298e-05 -2.54538e-05 5.54428e-06 6.4465e-06 -2.03225e-05 4.12849e-05 -4.2231e-05 -3.41412e-06 1.09854e-05 -4.9845e-05 4.68051e-05 5.09197e-05 3.37106e-05 -2.42583e-05 2.56437e-05 1.7822e-05 6.88634e-05 5.80903e-05 -2.81665e-05 3.65476e-05 2.51265e-05 3.18177e-05 -2.66929e-05 -5.56781e-05 1.25352e-05 1.64593e-05 6.08347e-05 6.60391e-05 3.77862e-06 5.06589e-05 4.3225e-06 -1.43721e-05 -5.92798e-05 -7.73482e-05 2.9987e-05 1.80446e-05 6.80896e-05 -5.7097e-05 -5.00468e-05 6.70491e-06 5.59551e-05 -6.22652e-05 3.6929e-05 2.16162e-05 -2.74087e-05 7.36393e-07 7.50638e-05 -4.28595e-06 2.82185e-05 -0.00013466 6.01817e-05 5.7584e-05 -6.35042e-05 -4.58076e-05 -4.04535e-05 5.10647e-05 5.85508e-05 3.37967e-05 2.64025e-05 5.75202e-05 0.118778 -0.00210336 6.39719e-05 0.000145959 -5.72533e-05 -0.000155694 4.4679e-05 5.05213e-05 -6.24079e-05 1.22063e-05 4.77685e-05 -4.38504e-05 6.09289e-05 -5.08607e-05 -5.14462e-05 4.93183e-05 -0.00154137 -0.000702495 4.48216e-05 2.97278e-06 -4.57781e-05 7.48493e-06 -2.19454e-05 5.64206e-05 -2.75424e-06 3.52023e-05 1.08804e-05 -3.18583e-05 5.79725e-05 7.46475e-05 -5.72047e-05 -9.20296e-07 -5.14255e-05 -4.33664e-05 2.53473e-06 -6.89743e-05 5.15329e-05 -5.94773e-06 2.62045e-05 -5.95716e-05 -4.55233e-05 -2.77218e-05 4.04204e-06 8.892e-07 -2.08965e-05 -6.53871e-05 2.1984e-05 3.88726e-05 1.98725e-05 5.09525e-05 -2.87507e-05 2.93665e-05 6.37321e-05 4.42302e-05 -6.79236e-05 3.70713e-05 -6.65943e-06 1.22406e-05 -6.26292e-05 -2.50637e-06 -2.76593e-05 6.61848e-05 2.21476e-05 4.36013e-06 -3.60549e-05 1.74127e-05 2.17248e-05 -1.31012e-05 -4.3875e-05 5.57353e-05 2.80621e-05 -1.48778e-05 1.22643e-05 3.28581e-05 4.23855e-05 -1.4177e-05 -6.93438e-05 -4.86785e-05 6.83268e-05 -1.50511e-05 -2.22574e-05 7.92215e-05 -6.7363e-05 -4.51067e-05 -3.62404e-05 7.19928e-05 -1.32429e-07 1.39468e-05 5.01679e-05 -3.89657e-05 -6.13418e-05 -1.63137e-05 -7.17215e-05 4.542e-05 -4.67829e-05 -5.14239e-05 7.91671e-06 -3.49108e-05 -7.00505e-05 1.69266e-05 -4.30882e-05 2.71206e-05 -4.55425e-05 -2.40112e-05 -7.43697e-05 -1.75924e-05 1.09046e-06 5.67627e-05 4.9255e-05 1.51298e-05 2.579e-06 -5.70983e-05 1.42902e-05 6.61306e-05 6.55033e-05 -6.988e-05 3.76587e-05 -3.89661e-06 7.32998e-05 -3.20012e-05 2.80832e-05 -9.65991e-06 -4.51107e-05 6.90677e-05 6.67297e-05 6.40118e-06 1.71807e-05 -1.09103e-06 0.00015406 9.29075e-05 3.99434e-05 -5.54399e-05 6.32023e-05 -7.34852e-05 -5.62651e-06 5.43721e-05 -6.91678e-05 -5.35763e-05 -7.23048e-05 4.91733e-05 2.83037e-05 -5.32324e-05 1.08271e-05 -1.0462e-06 4.68038e-05 -5.49042e-05 -5.02679e-05 6.45228e-05 -7.34376e-05 4.90981e-06 1.5476e-05 -2.52262e-05 -1.0865e-05 -6.17754e-05 -2.33449e-05 -6.30298e-05 -6.3903e-05 5.28832e-05 2.2952e-05 -2.96021e-05 1.39988e-05 -3.49587e-05 -4.12282e-05 2.93279e-05 -1.88176e-06 6.48673e-05 1.13832e-06 1.9625e-05 -7.74798e-07 -6.84976e-05 6.60838e-05 -5.16219e-05 2.96922e-05 -1.96298e-05 -3.4838e-05 7.20731e-05 2.54223e-05 -6.05461e-05 -2.16178e-05 7.12734e-05 4.14662e-05 -2.1426e-05 -2.30801e-05 -6.29677e-06 -7.31525e-06 -2.02059e-05 4.9653e-05 2.35652e-05 9.26409e-06 -5.856e-05 4.95979e-05 4.7072e-06 -9.23991e-07 6.36005e-05 -4.80071e-05 1.47881e-05 -4.60782e-05 -2.47643e-05 -4.25331e-05 3.77161e-05 5.41714e-05 -2.26466e-05 -4.46278e-05 3.63063e-05 -7.33574e-05 3.31182e-06 1.281e-05 -1.54121e-05 -4.59089e-05 1.14323e-05 -1.25476e-05 -5.15603e-05 5.09381e-05 -6.44544e-05 -7.24524e-05 -7.23742e-05 -2.3087e-06 1.97092e-05 -3.39236e-05 2.2762e-06 1.47545e-05 -6.38002e-06 7.2389e-06 4.38082e-05 -1.768e-05 4.34634e-05 3.44903e-05 -1.92019e-05 -1.51719e-05 8.46898e-05 -2.49009e-05 3.78399e-05 -3.69961e-05 5.32247e-06 -5.45267e-05 -1.59468e-05 6.17534e-05 1.20554e-05 -2.58743e-05 -7.00831e-05 0.000112418 0.000152575 1.77547e-05 -1.33171e-05 -6.32907e-05 0.000158365 -2.23788e-05 -4.41095e-06 0.000111831 -3.62107e-06 3.54938e-05 -2.79187e-06 -1.5077e-06 3.32684e-05 -7.91175e-05 -0.00013252 0.0659888 0.00100199 -2.88485e-05 -8.18114e-05 1.33535e-05 -0.000169502 -2.55208e-05 9.47809e-05 -8.77625e-05 -3.06951e-05 -2.86413e-05 6.36687e-05 3.33589e-05 -4.02452e-05 -3.55941e-05 0.000119252 -0.000189703 -6.9103e-05 7.24703e-06 0.000123204 1.40862e-05 -6.52354e-05 1.79616e-05 -6.3789e-05 3.6048e-05 3.10278e-05 -2.49111e-05 -2.58642e-05 2.17042e-05 -8.19567e-06 -1.14658e-05 7.15186e-05 2.70364e-06 2.04458e-05 2.66321e-05 -4.20319e-05 -4.47088e-05 -7.44727e-05 6.15541e-05 -6.73341e-05 -2.97441e-05 1.03552e-05 6.77865e-05 -6.10787e-05 5.98768e-05 6.35127e-05 1.86635e-05 1.65811e-05 8.43684e-06 2.15639e-05 -4.29807e-05 6.1844e-05 -1.79601e-05 3.27501e-07 -1.85145e-05 9.51596e-06 -1.02352e-06 -2.22369e-05 6.58521e-05 4.8708e-05 6.5187e-06 6.3672e-05 1.42003e-05 -1.92011e-05 -1.23036e-05 -7.35839e-06 7.41655e-05 -6.33143e-05 7.41066e-05 -8.0246e-06 -6.68666e-05 3.57187e-05 -4.75674e-05 -3.99543e-06 -5.15587e-05 2.30667e-05 7.21812e-05 3.80265e-05 -7.40976e-05 -1.84253e-05 -0.000169766 -4.97204e-05 5.6997e-05 4.21487e-05 2.45276e-05 -3.30438e-05 3.71963e-05 -8.06152e-06 -1.91253e-05 2.52293e-05 -3.60064e-06 2.64943e-05 4.20095e-05 -5.59897e-05 -2.60022e-05 3.54071e-05 1.35829e-05 -8.31082e-05 3.17687e-05 -2.26926e-05 2.22076e-05 7.6733e-05 7.06405e-05 -3.38409e-05 -2.17157e-05 -1.92898e-05 2.77395e-05 -3.17683e-05 1.44062e-05 1.24755e-05 8.48835e-06 -2.38652e-05 0.000138818 0.000174632 -4.92108e-05 -3.11445e-05 3.26165e-05 -3.6176e-05 3.74866e-05 -1.42141e-05 -5.76668e-05 -5.94416e-05 -2.82485e-05 1.23501e-05 -7.21112e-05 4.43627e-05 -3.79685e-05 7.24011e-05 -9.82611e-05 1.10513e-05 2.30004e-05 -2.2152e-05 -7.54827e-05 2.70123e-05 1.36653e-05 2.0169e-06 5.15923e-05 5.18078e-05 1.0118e-05 2.87705e-05 -3.41141e-06 7.44145e-05 -3.32248e-05 -6.99282e-05 -7.14161e-05 -2.9297e-05 -5.96642e-05 -4.83505e-05 6.28117e-05 -4.43844e-05 -3.6058e-05 5.75203e-06 -5.38197e-05 -2.0481e-05 -5.33511e-05 -4.63501e-05 -6.67351e-05 -2.5744e-05 4.55819e-05 -1.20683e-05 -3.70314e-05 2.14975e-05 7.07293e-05 -2.82079e-05 7.23101e-05 4.51294e-05 3.49247e-05 4.47843e-05 -1.97249e-05 2.62696e-05 -4.98053e-05 -1.09595e-06 -8.55593e-06 -3.59935e-05 -6.62222e-05 1.03438e-05 4.87198e-05 7.59896e-05 -7.57919e-05 -5.16e-05 3.47415e-05 -3.04962e-05 -7.55012e-05 -3.56879e-06 -2.64451e-05 -2.4604e-05 -7.32505e-05 -5.28045e-05 3.75603e-05 6.07214e-05 -2.98694e-05 7.13842e-05 -4.32682e-06 2.55113e-05 -5.03351e-05 5.19574e-06 1.31454e-05 6.59579e-05 -7.2663e-05 7.21664e-05 -5.22446e-05 5.77243e-05 -4.37087e-05 -2.85636e-05 -1.40907e-05 -1.40389e-05 1.99547e-05 4.27163e-06 6.55843e-05 3.17665e-05 4.36835e-06 7.45544e-05 3.37333e-05 2.28746e-05 4.31322e-06 -3.29275e-05 -4.0528e-05 -5.32166e-05 -2.9549e-05 -6.91901e-05 -6.82273e-05 -2.02573e-05 5.99146e-05 6.30743e-05 -6.49252e-06 -5.89762e-05 -6.14788e-05 -4.3752e-05 6.68382e-05 -7.40443e-06 6.7284e-05 -2.07254e-05 -7.3296e-05 2.9422e-05 3.68153e-05 3.4775e-05 -1.89621e-05 -5.25344e-05 8.70938e-06 7.191e-05 9.78812e-06 -7.38028e-05 3.20979e-05 -1.73884e-05 9.88737e-06 1.51253e-05 -4.44271e-05 2.38023e-05 -7.39942e-05 -5.47658e-05 2.80704e-05 -1.08913e-05 -7.21187e-05 -3.00108e-05 1.32483e-05 -3.58169e-05 -0.0409322 0.000574607 6.42543e-05 3.09189e-05 -4.49856e-05 0.000366537 6.52321e-05 -4.23621e-05 9.83243e-05 1.03091e-05 -4.40174e-05 -3.1309e-05 -7.69462e-06 6.64912e-05 -5.55939e-05 -0.000111527 0.00212184 0.00146631 6.46037e-05 -4.24226e-05 7.01189e-05 -7.79338e-05 -1.57815e-05 -5.72544e-05 -1.9383e-05 5.62156e-05 -1.58844e-05 5.43065e-05 4.72831e-05 -6.79415e-05 -5.3777e-05 1.17874e-05 -7.46068e-05 1.12279e-05 -4.27203e-05 2.02892e-05 4.35738e-05 -2.39941e-05 5.10936e-05 -3.27189e-05 -1.0465e-05 -5.15266e-05 -4.29536e-05 2.37252e-06 4.95289e-05 6.76338e-05 6.80675e-05 4.36347e-05 4.28261e-05 2.12998e-06 4.78969e-05 -1.31615e-05 4.56507e-05 3.75207e-05 -6.3783e-05 1.93351e-05 2.58036e-05 -5.82116e-05 2.81525e-05 4.84163e-05 2.43296e-05 1.55103e-05 -2.77827e-05 -3.73989e-05 8.70176e-06 1.52339e-05 4.99252e-05 2.06604e-05 7.06467e-05 6.46743e-05 7.43663e-05 4.08127e-05 1.19958e-05 -1.97771e-05 7.58287e-05 5.90813e-05 4.46763e-05 -6.95072e-05 4.12741e-05 1.31824e-05 -0.00014705 -5.88768e-05 -1.83099e-06 -2.93029e-05 -7.52311e-05 -4.65968e-05 -4.1255e-05 7.02471e-05 4.45865e-05 5.70842e-05 -1.95122e-05 4.40901e-05 6.11498e-05 3.1694e-05 1.55566e-05 -3.63225e-05 7.44901e-05 -2.02164e-05 7.39032e-05 2.10768e-05 -3.59089e-05 7.32325e-05 -5.4303e-05 -2.04783e-05 -5.60176e-05 -3.08553e-05 6.48794e-05 5.75256e-05 3.5279e-05 5.10561e-05 2.57592e-05 4.02194e-05 0.000149327 4.35449e-05 -2.55663e-05 -3.99868e-05 1.58784e-05 6.23137e-05 1.75233e-05 9.998e-06 -4.00777e-05 -2.04978e-05 7.95472e-06 -4.40212e-05 7.13336e-05 5.05762e-05 -1.98455e-05 -3.33883e-05 -0.000101446 -7.63133e-05 -3.76367e-05 3.48827e-05 -3.66971e-05 -4.39915e-05 7.44322e-05 3.38122e-05 5.33822e-05 -3.52033e-05 4.37531e-05 6.00121e-05 -5.74975e-05 2.24399e-05 -1.27674e-05 2.7476e-05 5.30846e-05 -5.97217e-05 -6.63304e-05 3.90978e-05 3.37151e-05 6.63288e-06 5.74624e-05 -3.81202e-05 -4.69694e-05 -7.31546e-05 2.79968e-05 -2.21559e-06 -1.74588e-05 -5.24481e-05 4.69773e-05 -2.35956e-05 6.19138e-06 -5.01396e-05 5.11371e-06 5.09399e-05 1.81983e-05 1.28015e-05 -6.28382e-05 6.62819e-05 -4.62505e-05 4.96488e-05 2.97787e-05 -2.45845e-05 4.3746e-06 2.64024e-06 2.14677e-05 -4.87011e-05 4.76777e-05 5.03913e-05 4.09488e-05 -2.37969e-05 1.2237e-05 6.38394e-05 -4.54712e-06 -1.03556e-05 -3.57566e-05 -2.06358e-06 7.48155e-06 7.53774e-05 4.007e-05 1.11044e-05 7.50098e-05 -5.46007e-05 -6.16922e-05 2.99544e-05 -6.3096e-05 -6.80345e-05 -5.84069e-05 -2.66496e-06 4.76938e-05 1.54355e-05 -5.50666e-05 3.58454e-05 -5.84418e-05 1.02241e-05 1.81161e-05 -4.51277e-05 4.88444e-05 1.46023e-05 1.59967e-05 -8.05475e-05 5.69894e-05 -1.63861e-06 -1.5091e-06 6.594e-05 3.11256e-05 6.18257e-05 4.24151e-05 2.17758e-05 -3.25776e-05 -6.22479e-05 4.82838e-05 3.14425e-05 4.7697e-05 2.96759e-05 -3.70816e-05 5.91434e-05 -8.13306e-08 -2.92921e-05 1.53162e-05 -3.90211e-05 -1.33805e-05 3.82965e-05 -2.86265e-05 7.23111e-05 5.3157e-05 6.31457e-05 -5.30565e-05 -4.83555e-05 -3.45536e-05 3.10821e-05 0.000195274 9.57763e-05 -5.32514e-05 1.6419e-05 4.6644e-05 0.000141523 5.59776e-05 -2.16138e-05 0.000105529 1.29051e-05 -2.20258e-06 -6.27002e-05 -2.29125e-05 6.10483e-05 -9.39594e-05 -0.000125364 0.131759 0.00201981 3.68346e-05 -0.000127063 -6.93612e-05 5.17909e-05 6.41326e-05 8.49349e-05 4.93205e-05 3.73374e-05 -7.45289e-05 2.8181e-05 7.16436e-05 2.19311e-05 -4.69118e-05 7.71455e-05 0.000366913 0.000586771 3.07368e-05 -2.75918e-05 -4.86527e-05 4.86544e-05 1.01805e-05 -2.20523e-05 -3.04019e-05 1.57581e-05 1.89969e-05 -3.77775e-05 -3.59385e-05 -4.7723e-05 -5.18826e-05 2.50288e-05 -2.22431e-06 -4.48892e-05 -7.23272e-05 1.79197e-05 -6.13599e-06 2.92651e-05 -2.44757e-05 -4.9585e-05 -1.18567e-05 -4.65926e-06 -4.3189e-05 -5.55123e-05 -7.07568e-05 3.6781e-06 9.41429e-08 2.58679e-05 -5.9713e-05 7.35134e-05 7.25952e-05 1.64366e-05</Parameters>
      </LongShortTermMemoryLayer>
      <PerceptronLayer>
         <LayerName>perceptron_layer_1</LayerName>
         <InputsNumber>16</InputsNumber>
         <NeuronsNumber>1</NeuronsNumber>
         <ActivationFunction>Linear</ActivationFunction>
         <Parameters>-0.111467 4.21092e-05 0.00139274 -3.85441e-05 -5.92739e-05 0.000619816 -3.99875e-05 2.77004e-05 -0.00011394 4.44926e-05 -2.68639e-05 -8.08119e-05 -0.00049337 0.800999 0.00083867 -0.000216696 -0.000405913</Parameters>
      </PerceptronLayer>
      <UnscalingLayer>
         <UnscalingNeuronsNumber>1</UnscalingNeuronsNumber>
         <Descriptives Index="1">
            <Minimum>104</Minimum>
            <Maximum>622</Maximum>
            <Mean>282.627</Mean>
            <StandardDeviation>119.176</StandardDeviation>
            <Scaler>MinimumMaximum</Scaler>
         </Descriptives>
      </UnscalingLayer>
      <BoundingLayer>
         <BoundingNeuronsNumber>1</BoundingNeuronsNumber>
         <Item Index="1">
            <LowerBound>-3.40282e+38</LowerBound>
            <UpperBound>3.40282e+38</UpperBound>
         </Item>
         <UseBoundingLayer>1</UseBoundingLayer>
      </BoundingLayer>
   </Layers>
   <Outputs>
      <OutputsNumber>1</OutputsNumber>
      <Output Index="1">Passengers_ahead_1</Output>
   </Outputs>
</NeuralNetwork>
