<NeuralNetwork>
   <Inputs>
      <InputsNumber>2</InputsNumber>
      <Input Index="1">Passengers_lag_1</Input>
      <Input Index="2">Passengers_lag_0</Input>
   </Inputs>
   <Layers>
      <LayersTypes>Scaling Recurrent Perceptron Unscaling Bounding</LayersTypes>
      <ScalingLayer>
         <ScalingNeuronsNumber>2</ScalingNeuronsNumber>
         <ScalingNeuron Index="1">
            <Minimum>104</Minimum>
            <Maximum>622</Maximum>
            <Mean>278.458</Mean>
            <StandardDeviation>119.767</StandardDeviation>
            <Scaler>MinimumMaximum</Scaler>
         </ScalingNeuron>
         <ScalingNeuron Index="2">
            <Minimum>104</Minimum>
            <Maximum>622</Maximum>
            <Mean>280.415</Mean>
            <StandardDeviation>119.298</StandardDeviation>
            <Scaler>MinimumMaximum</Scaler>
         </ScalingNeuron>
      </ScalingLayer>
      <RecurrentLayer>
         <InputsNumber>2</InputsNumber>
         <NeuronsNumber>32</NeuronsNumber>
         <ActivationFunction>HyperbolicTangent</ActivationFunction>
         <Parameters>0.00808601 -0.00834553 0.00838348 0.00784156 -0.00890341 0.0080908 -0.00772754 -0.00777633 -0.00747443 0.00889515 0.00817182 0.00786359 -0.00733708 0.0089849 0.00803984 0.00730392 -0.00725869 -0.00845212 -0.00779642 0.00770979 0.00792973 0.00727508 0.00870701 -0.00829983 0.00699633 -0.00895537 -0.00677936 -0.00885759 0.0084348 -0.00846003 0.00760107 -0.00916824 0.0504977 0.168271 -0.0492131 -0.167357 0.0499608 0.167396 0.0499278 0.167338 -0.0499751 -0.16717 0.0502402 0.167135 -0.0498903 -0.167665 -0.0500368 -0.168325 -0.0496536 -0.166436 0.0505483 0.168746 0.0500321 0.166994 0.0502731 0.167059 -0.0500528 -0.167479 0.0497312 0.167146 0.0499118 0.167712 0.0500522 0.167157 -0.0502919 -0.167761 -0.0503185 -0.168215 -0.0501757 -0.166866 0.0504234 0.16777 0.0494158 0.168099 0.0497076 0.166014 0.049733 0.167694 -0.0494409 -0.166524 0.0500094 0.166291 -0.0499223 -0.168237 -0.0484888 -0.159223 -0.0501656 -0.168116 0.0499931 0.168077 -0.0503022 -0.167454 0.0493509 0.166974 -0.0502941 -0.169534 -1.24511e-06 1.01707e-06 -3.14986e-08 3.92483e-07 3.81821e-07 3.34115e-07 1.68844e-06 -1.6174e-06 1.59886e-07 5.06361e-07 2.26841e-06 -8.10677e-07 1.14995e-06 2.09103e-06 2.39012e-06 1.28638e-06 -3.41137e-07 7.83359e-08 7.82949e-09 1.22186e-06 -2.16405e-06 -5.95964e-08 -1.35299e-06 -1.08779e-06 1.11146e-06 1.66172e-06 1.50405e-07 3.02467e-07 -1.70429e-06 2.14437e-06 4.70128e-07 1.74523e-06 1.70588e-06 1.18189e-06 -7.14626e-07 3.73229e-07 7.28007e-08 -2.07971e-06 -1.56239e-06 -6.062e-07 -1.40517e-06 -2.41925e-06 6.99234e-08 -1.59875e-07 -1.496e-06 4.68817e-07 -1.41657e-06 1.00691e-06 -1.30396e-06 -2.38175e-06 1.71313e-06 7.57384e-07 -2.07146e-06 -1.01729e-06 2.26108e-06 -1.16022e-06 2.26128e-06 1.82934e-06 -1.62665e-06 -7.5839e-07 1.83433e-06 -1.83494e-06 -1.1353e-06 2.5072e-08 -6.62761e-07 1.00042e-06 -1.30164e-07 6.78925e-07 8.97768e-07 2.69858e-07 6.55181e-08 9.77752e-07 -1.80193e-06 1.86514e-06 2.19058e-06 1.70278e-06 -1.72508e-06 -2.39582e-06 -1.85146e-07 1.09029e-06 -1.25157e-06 7.20035e-07 -2.9436e-07 1.71251e-06 -1.0573e-06 -7.52855e-07 2.10885e-07 -2.26585e-06 -2.02009e-06 6.62403e-07 7.12177e-07 6.46295e-07 2.20181e-06 5.66635e-07 1.70818e-06 1.094e-06 -1.58422e-06 8.19344e-07 1.9068e-06 2.04538e-06 1.93612e-06 1.54352e-06 1.07422e-06 1.42614e-06 4.59038e-07 4.54208e-07 1.35488e-07 2.15995e-06 -2.29269e-07 1.58036e-06 2.3148e-06 -4.99414e-07 2.09393e-06 -1.10451e-06 2.35131e-06 -5.81206e-07 1.54888e-06 -2.00641e-07 1.2832e-06 -6.4872e-07 2.19727e-06 9.63592e-07 -3.12905e-07 -1.01752e-06 -2.09001e-06 6.39981e-07 -2.32305e-06 1.25314e-06 1.65092e-06 -1.28029e-06 -2.18965e-06 -8.07947e-07 7.23419e-07 8.86035e-07 3.68002e-07 3.80027e-07 -2.08317e-06 2.32347e-06 2.08593e-06 -2.39668e-06 6.60907e-07 1.34108e-06 1.85668e-06 5.00813e-07 2.06572e-06 -1.19389e-06 7.2288e-07 -2.1782e-06 -2.60486e-08 -1.16414e-07 -6.7834e-07 -7.61575e-07 6.10632e-07 -1.46668e-06 -4.60271e-07 2.15427e-06 2.48222e-07 -5.21962e-07 -7.0046e-07 -1.8584e-06 -2.14675e-06 1.97008e-07 1.39644e-06 4.45946e-07 -2.13922e-06 -2.38091e-06 1.24038e-06 -1.10971e-06 -1.5564e-06 -2.75533e-07 -1.34437e-06 -2.16802e-06 1.75073e-06 4.69742e-07 -1.39458e-06 -2.37713e-09 -2.33632e-06 -7.33709e-08 2.31655e-06 -2.09615e-07 1.27067e-06 -1.12464e-06 2.2283e-06 -9.25811e-07 -9.80764e-07 1.39096e-06 1.59872e-06 -2.32783e-06 -4.27107e-07 -1.69299e-06 -7.66389e-07 4.66689e-07 9.08239e-07 -1.2215e-06 -6.12988e-07 -1.53584e-06 1.95332e-06 8.68634e-07 1.688e-06 -6.80317e-07 9.11783e-07 1.94446e-06 1.91083e-06 1.88482e-06 2.232e-06 -2.15684e-06 1.89028e-06 1.04942e-07 -1.77259e-06 -4.71374e-07 2.03864e-06 2.34423e-06 1.16725e-06 1.14109e-06 -1.8927e-06 1.9347e-06 -8.61082e-07 7.75759e-07 -4.84966e-07 1.0153e-06 -9.67961e-07 -1.51361e-06 -6.36278e-07 -1.0734e-06 1.22987e-06 2.63075e-07 -2.0871e-07 -6.11335e-07 6.8136e-07 5.73807e-07 -7.16406e-07 5.6777e-07 1.90331e-07 1.46729e-06 1.55154e-06 -1.87021e-06 -4.62218e-07 2.12618e-06 1.33823e-06 -5.34403e-07 -5.74579e-07 2.27386e-06 1.70002e-06 1.3861e-06 -1.4555e-06 1.54353e-06 -1.23166e-06 -2.29265e-06 -1.42147e-06 1.68901e-07 -1.46117e-06 2.37893e-06 1.37047e-07 1.59585e-06 1.12814e-06 8.12116e-08 -3.49692e-07 -1.51853e-06 -1.89167e-06 -1.38972e-06 -6.50624e-07 1.33951e-06 7.44509e-07 -1.91769e-06 1.52529e-06 -1.6921e-06 -9.60864e-07 -1.98561e-06 -7.63102e-07 -1.89855e-06 5.27191e-07 -1.95511e-06 -2.39156e-06 8.31787e-07 1.44416e-07 1.50348e-06 3.22218e-07 -8.29136e-08 1.12614e-06 1.87547e-06 5.79684e-07 7.82375e-07 1.10359e-06 6.59693e-07 -2.10566e-06 -3.75463e-07 6.70371e-07 2.20473e-06 -2.22585e-06 -4.55526e-07 1.45696e-06 1.80546e-07 1.62395e-06 -1.79195e-06 -2.09736e-06 -1.76164e-06 1.26149e-06 -2.79527e-07 -2.22205e-06 2.29246e-06 3.2404e-07 -4.31842e-07 -2.16335e-06 2.0765e-06 -4.18986e-07 1.95851e-07 -1.72787e-06 1.32829e-06 2.08714e-06 1.07103e-06 1.51101e-06 2.18396e-06 -5.54864e-07 1.56964e-06 1.86414e-06 -1.56517e-06 1.26511e-07 -7.49658e-07 -1.48001e-06 5.64687e-08 -2.02682e-06 -2.39979e-06 -4.1537e-07 2.19925e-06 -1.88091e-07 9.53672e-07 1.42121e-06 -7.05772e-07 1.33923e-06 1.14493e-06 -1.77752e-06 9.32591e-07 1.31216e-07 1.18909e-06 8.00835e-07 -2.43864e-07 -1.58806e-06 -1.78848e-06 -1.15385e-06 -1.53402e-06 -2.29156e-06 3.1247e-07 7.67757e-07 2.30576e-06 -9.92742e-08 -7.98846e-07 2.32448e-06 2.16999e-06 -1.45328e-06 -2.37433e-06 -3.84661e-07 -5.29565e-07 -1.56577e-06 -9.86708e-07 -1.30448e-06 1.7592e-06 -9.07156e-07 9.37616e-08 2.24878e-06 6.85631e-07 -3.82551e-07 5.48119e-07 -1.93379e-06 2.25648e-06 -8.03877e-07 -2.23329e-06 2.03105e-06 -1.40493e-08 -2.39271e-06 1.38195e-07 1.87142e-06 -8.97288e-07 -1.21426e-06 -2.06915e-06 -7.59464e-07 -2.40371e-06 -2.2216e-06 -2.23386e-06 1.14436e-06 -2.26472e-06 -2.34114e-06 1.75653e-06 -1.30622e-06 -2.06689e-06 -1.69966e-06 -1.72898e-06 2.14963e-06 -3.46153e-07 -1.88316e-06 8.38688e-07 4.70175e-07 -1.56658e-06 -4.5769e-07 -1.54402e-06 1.72254e-06 -1.04522e-06 1.19854e-06 -1.21167e-06 -1.52217e-06 -1.46989e-06 1.40208e-06 -7.1939e-07 -4.70757e-07 -1.22674e-06 7.73583e-07 -7.91117e-07 1.65668e-06 -6.84119e-07 -7.05121e-07 -8.86363e-07 -1.12837e-06 -7.78572e-07 3.41499e-07 -6.42771e-07 -1.82497e-07 -8.25395e-07 2.14271e-06 2.02338e-06 7.4757e-07 5.64542e-07 -1.22732e-06 -1.14834e-06 5.67608e-07 -3.30975e-07 4.8484e-07 -2.02597e-06 1.10478e-06 2.05258e-06 -1.5125e-06 -6.43974e-07 1.19191e-06 2.21947e-06 2.86015e-07 1.21994e-06 5.65339e-07 1.5168e-06 2.23693e-06 -1.0715e-07 -2.26782e-06 6.28513e-07 1.80202e-06 -2.08395e-06 -1.95265e-06 1.13773e-07 -1.91374e-06 -2.2431e-06 1.65307e-06 -1.43999e-06 8.20577e-07 2.37e-07 1.76077e-06 -1.65276e-06 1.18418e-06 -3.2674e-07 1.75995e-06 -1.74989e-06 -2.26621e-06 -8.4727e-08 -2.76923e-07 2.20171e-06 1.15414e-06 -4.15248e-07 1.43125e-06 -1.95383e-07 -6.65954e-09 -4.36166e-07 1.13377e-06 7.34554e-07 1.12709e-07 7.34035e-07 1.02088e-06 1.01199e-06 -1.4774e-06 1.15121e-06 -1.61447e-06 -2.23394e-06 1.89964e-07 -4.41892e-07 -2.3449e-06 -2.30967e-06 4.65424e-07 -1.24767e-07 -9.82694e-08 3.936e-07 -9.14374e-07 -7.48059e-07 -2.02109e-06 -8.88845e-07 1.8315e-06 -1.96243e-06 -1.75347e-06 -1.44059e-06 -1.79819e-06 -2.92976e-07 -3.75919e-07 8.59273e-07 2.21246e-06 1.7278e-07 -6.3744e-07 -1.61668e-06 -6.5868e-07 -2.19503e-06 3.23597e-07 1.24004e-06 -1.98585e-06 -1.00632e-06 1.53157e-06 -1.87239e-06 -3.8729e-07 -2.20138e-06 1.62022e-07 -5.55081e-07 -1.69877e-06 8.40537e-07 1.56497e-06 -1.55924e-06 -1.03047e-06 -1.42942e-06 2.02876e-06 -1.08363e-06 -8.03867e-08 -1.65556e-06 -6.77048e-07 -1.01041e-06 1.17397e-06 1.38594e-07 6.09156e-07 1.70455e-06 -3.08652e-07 1.82162e-06 1.87962e-07 2.5234e-07 -1.63131e-06 1.74083e-06 -1.41905e-06 -1.38171e-06 -1.56837e-07 -1.27358e-06 1.37427e-06 1.2308e-06 2.25741e-06 2.57046e-07 1.64921e-06 -1.48584e-06 1.96415e-06 7.58815e-07 5.52964e-07 -2.27006e-06 8.70969e-07 -1.26398e-06 2.08428e-06 5.03279e-07 -7.8336e-07 -3.47933e-07 -2.1695e-06 5.99576e-07 6.25482e-07 1.43199e-06 -8.94279e-07 1.34994e-07 4.62366e-07 9.65698e-07 8.31082e-07 1.34533e-06 -1.1882e-06 -6.56788e-07 -1.7528e-06 1.50537e-06 -4.85175e-07 4.80948e-07 -1.31146e-06 1.27254e-06 -2.15958e-06 2.6065e-07 -9.63011e-07 5.75634e-07 5.22822e-07 -1.74502e-07 2.34601e-06 -2.37011e-06 -1.67482e-06 1.04574e-06 3.44645e-07 -1.64704e-06 -1.97637e-06 -1.40292e-06 3.91269e-07 -5.69024e-07 -5.40587e-08 -5.544e-07 -9.66266e-07 2.31479e-08 -1.21951e-06 1.54312e-06 4.84339e-07 4.72171e-07 6.24857e-07 1.57334e-06 1.31493e-06 2.56994e-07 -1.87121e-06 2.15837e-06 1.03285e-06 9.60391e-07 -1.38346e-06 1.03617e-06 -1.54503e-06 -1.86988e-06 -1.71677e-06 8.05362e-07 -1.57217e-07 1.16023e-06 -2.29492e-06 2.04939e-06 -1.36903e-06 -1.93723e-06 2.68173e-07 -8.10355e-07 9.57723e-07 1.54491e-07 8.59852e-07 -1.21038e-07 -9.55565e-07 1.83638e-06 -6.49658e-07 3.24488e-07 2.95665e-07 2.16542e-07 2.08427e-06 2.72051e-07 -3.2237e-07 1.10866e-06 -2.39963e-06 -6.24566e-07 -1.4748e-06 2.08935e-06 6.26121e-07 1.09272e-06 7.28419e-07 -4.83643e-07 3.04943e-07 -6.48584e-07 -2.37985e-06 7.98829e-07 -1.10071e-06 -1.45555e-06 -1.74486e-06 1.65159e-06 9.18006e-07 -1.67468e-06 3.61974e-07 1.53946e-06 -1.36862e-06 -1.09555e-06 2.17591e-06 -2.28756e-06 -2.06084e-06 1.51995e-06 -1.44948e-06 2.13124e-06 -1.57782e-07 1.91686e-06 -7.37627e-07 1.96328e-06 4.88516e-07 7.27583e-09 -2.17572e-06 4.29376e-07 -1.73051e-06 -9.19756e-07 1.40825e-06 2.15434e-08 -2.06588e-06 -1.46859e-06 2.16389e-06 2.36845e-06 1.27522e-07 1.85582e-06 6.861e-08 -1.90253e-06 5.45031e-07 3.42599e-07 1.38078e-06 1.26907e-06 1.30635e-06 -2.32007e-06 1.28321e-06 4.83854e-07 7.86339e-07 2.24006e-06 3.32564e-07 1.78464e-06 -1.48554e-06 -1.38454e-06 7.02097e-07 2.12819e-06 5.19264e-07 -2.80452e-08 -2.14875e-06 4.30986e-07 -1.21509e-06 -1.3288e-06 4.03316e-07 1.06515e-06 -2.27585e-06 -8.36886e-07 -2.21585e-06 8.95677e-07 -2.07237e-06 -6.09627e-07 -3.29185e-07 1.82082e-06 4.96679e-07 -2.39987e-06 -8.95536e-07 8.73344e-07 7.82878e-07 2.35926e-06 -1.46772e-06 1.86403e-07 3.09732e-07 2.09946e-06 -1.79815e-06 -1.35937e-06 1.10627e-06 2.03689e-06 -6.34689e-07 2.24725e-06 1.81464e-06 -2.22163e-06 -5.41202e-07 6.36884e-07 -1.87293e-06 -1.18927e-06 2.04145e-06 5.90042e-07 2.23588e-06 -2.41855e-07 -1.94623e-07 2.02406e-07 1.7032e-06 -1.99136e-06 1.86645e-06 -3.17964e-07 -1.99476e-06 -4.79643e-07 2.12724e-07 7.51202e-07 1.83634e-06 -1.30816e-07 3.7973e-07 -2.12151e-06 -6.01551e-07 -1.44974e-06 1.12141e-06 7.36653e-07 -7.56346e-07 -2.67445e-07 -1.8462e-07 -5.84715e-07 -4.02993e-07 -7.15188e-07 7.17873e-07 -1.46926e-06 1.69237e-07 -1.38675e-06 4.86746e-07 -2.05318e-06 1.65598e-07 1.42663e-06 1.25204e-06 -1.9631e-06 -1.59247e-07 -9.92028e-08 1.29646e-06 -8.39951e-07 7.98615e-07 -1.18584e-06 -1.1115e-06 2.94947e-07 -2.11464e-06 1.51196e-06 -1.61587e-06 7.83684e-07 1.71662e-06 1.2142e-06 7.42505e-07 4.7955e-07 2.23506e-06 -1.18766e-06 1.34394e-06 1.89291e-06 -5.03992e-07 -1.49103e-06 1.5703e-06 2.09652e-07 2.35214e-06 2.25581e-06 -8.44393e-07 -1.41353e-06 3.86971e-07 -1.84224e-06 2.01626e-06 8.858e-07 -1.57772e-06 -2.2941e-06 1.88675e-06 -5.33342e-07 -2.10194e-06 4.02281e-07 9.27754e-07 -2.20134e-06 5.59986e-09 -6.11995e-07 -1.84472e-06 -1.80993e-06 1.94086e-06 -1.89229e-06 3.62475e-07 -1.01478e-06 -1.55479e-06 1.69788e-06 -2.0713e-06 -1.24828e-07 -1.76093e-06 1.60545e-06 -8.47438e-07 1.04968e-06 4.35694e-07 -6.16695e-07 9.95034e-07 -2.20407e-07 -2.00438e-06 1.03908e-06 -9.22569e-07 -4.08215e-07 1.87867e-06 -1.26784e-06 2.22897e-06 1.19059e-06 -1.44064e-06 2.09427e-06 -4.31941e-07 2.33321e-07 -1.68476e-06 2.28678e-07 -3.16518e-08 6.33952e-08 4.20421e-07 -8.01426e-07 3.54061e-07 1.07806e-06 -1.36585e-06 1.24286e-06 -2.3604e-06 -5.65263e-07 -1.85829e-06 -1.98863e-06 2.22504e-06 1.72686e-07 -1.8055e-06 -6.9461e-07 -1.17829e-06 4.47237e-08 -1.48369e-06 -4.62647e-07 1.0802e-06 -1.51772e-06 -1.59086e-06 7.90854e-07 4.81392e-07 1.36689e-06 -1.81279e-06 -5.88339e-07 -2.71218e-07 -1.07629e-06 5.73615e-07 1.27176e-06 -1.15993e-06 -1.612e-06 -1.79752e-06 -2.36041e-06 -1.73998e-06 9.21644e-07 2.35605e-06 1.70379e-07 -1.6295e-06 -1.65133e-06 2.28106e-06 -8.87435e-07 2.09755e-06 5.34695e-07 -2.27523e-06 1.71651e-06 -4.86067e-07 -6.82349e-07 -1.44449e-06 1.82533e-07 -7.22874e-07 8.34154e-07 -1.18177e-06 1.82951e-06 -8.36368e-07 -1.51204e-06 -2.19439e-06 1.68263e-07 -1.40766e-06 -1.29572e-06 -1.58654e-06 -1.13139e-07 -9.72836e-07 1.03659e-06 1.98413e-06 -1.16177e-06 -1.60497e-06 1.19052e-06 -2.21765e-06 1.34257e-06 -2.35726e-06 5.70422e-07 -3.58638e-08 -5.85703e-07 1.85256e-06 -8.60841e-07 -5.2631e-07 1.66841e-06 -1.74192e-07 -1.14545e-06 3.32734e-07 -2.42232e-06 1.41646e-06 -8.37659e-07 -2.33871e-06 -4.83821e-08 3.58009e-07 2.01698e-06 -7.72932e-07 2.14398e-07 1.34893e-07 -1.53729e-06 1.05008e-06 -1.55789e-06 -5.44197e-07 -2.15152e-06 -2.23332e-07 1.12115e-06 2.18181e-06 -1.22049e-06 4.11132e-07 -1.93296e-06 2.08445e-06 1.75936e-06 6.14652e-07 9.27254e-07 1.5492e-06 1.6431e-06 2.23332e-06 -8.22825e-07 9.00412e-07 1.33507e-06 1.93901e-06 -1.42586e-06 -2.19937e-06 -5.36673e-07 2.4066e-06 -1.76821e-06 8.45427e-07 -1.38764e-06 1.41231e-07 -2.03824e-06 6.3998e-07 9.35746e-07 1.67172e-06 -5.128e-07 -1.37389e-06 -5.64846e-07 -2.07094e-07 4.82546e-07 -1.38688e-06 -8.99611e-07 -7.6473e-08 -1.61213e-06 -1.3856e-06 -1.07094e-06 -1.00314e-07 -1.50507e-06 -1.49773e-06 -1.86827e-06 -1.73804e-06 -7.36092e-07 -1.4293e-06 1.07782e-06 2.30352e-06 -1.9242e-06 1.124e-07 1.82956e-06 -5.64591e-07 -1.03831e-07 1.82071e-06 4.61743e-07 -9.82044e-07 -7.64874e-07 -1.62422e-06 -1.93182e-06 1.3826e-06 8.28425e-07 -6.25809e-07 -1.66082e-06 1.28588e-06 4.08225e-07 -2.15563e-06 1.75449e-06 -1.14946e-06 7.53734e-07 -2.12203e-06 1.04683e-07 -9.32897e-07 -7.69596e-07 1.56913e-06 1.8041e-06 2.39236e-06 2.24901e-06 -2.12323e-06 -1.41495e-06</Parameters>
      </RecurrentLayer>
      <PerceptronLayer>
         <LayerName>perceptron_layer</LayerName>
         <InputsNumber>32</InputsNumber>
         <NeuronsNumber>1</NeuronsNumber>
         <ActivationFunction>HyperbolicTangent</ActivationFunction>
         <Parameters>-0.0147509 0.180484 -0.179056 0.179691 0.179449 -0.179817 0.179498 -0.180002 -0.180183 -0.178618 0.181106 0.179516 0.17914 -0.179768 0.179316 0.180088 0.179454 -0.179948 -0.181392 -0.179168 0.179877 0.179324 0.178051 0.179739 -0.178775 0.178543 -0.180237 -0.171364 -0.180271 0.180258 -0.17914 0.178171 -0.182406</Parameters>
      </PerceptronLayer>
      <UnscalingLayer>
         <UnscalingNeuronsNumber>1</UnscalingNeuronsNumber>
         <Descriptives Index="1">
            <Minimum>104</Minimum>
            <Maximum>622</Maximum>
            <Mean>282.627</Mean>
            <StandardDeviation>119.176</StandardDeviation>
            <Scaler>MinimumMaximum</Scaler>
         </Descriptives>
      </UnscalingLayer>
      <BoundingLayer>
         <BoundingNeuronsNumber>1</BoundingNeuronsNumber>
         <Item Index="1">
            <LowerBound>-3.40282e+38</LowerBound>
            <UpperBound>3.40282e+38</UpperBound>
         </Item>
         <UseBoundingLayer>1</UseBoundingLayer>
      </BoundingLayer>
   </Layers>
   <Outputs>
      <OutputsNumber>1</OutputsNumber>
      <Output Index="1">Passengers_ahead_1</Output>
   </Outputs>
</NeuralNetwork>
