<NeuralNetwork>
   <Inputs>
      <InputsNumber>2</InputsNumber>
      <Input Index="1">Passengers_lag_1</Input>
      <Input Index="2">Passengers_lag_0</Input>
   </Inputs>
   <Layers>
      <LayersTypes>Scaling Recurrent Perceptron Unscaling Bounding</LayersTypes>
      <ScalingLayer>
         <ScalingNeuronsNumber>2</ScalingNeuronsNumber>
         <ScalingNeuron Index="1">
            <Minimum>104</Minimum>
            <Maximum>622</Maximum>
            <Mean>278.458</Mean>
            <StandardDeviation>119.767</StandardDeviation>
            <Scaler>MinimumMaximum</Scaler>
         </ScalingNeuron>
         <ScalingNeuron Index="2">
            <Minimum>104</Minimum>
            <Maximum>622</Maximum>
            <Mean>280.415</Mean>
            <StandardDeviation>119.298</StandardDeviation>
            <Scaler>MinimumMaximum</Scaler>
         </ScalingNeuron>
      </ScalingLayer>
      <RecurrentLayer>
         <InputsNumber>2</InputsNumber>
         <NeuronsNumber>32</NeuronsNumber>
         <ActivationFunction>HyperbolicTangent</ActivationFunction>
         <Parameters>0.00841357 0.00852398 0.00853944 0.00861771 -0.00845124 0.00841407 0.00851713 0.0086619 0.00817037 0.00832341 0.00844398 -0.0084289 -0.00912515 -0.00825 0.0079313 0.00769843 0.00813428 0.00865419 -0.0087082 0.0085401 -0.00836226 -0.00872131 -0.00862212 0.00876851 -0.00815125 0.000222602 -0.00850902 -0.00833759 0.00821472 0.00866446 0.00827615 -0.00879635 0.0502795 0.168985 0.0506889 0.170917 0.0505313 0.169663 0.0505744 0.170042 -0.0505803 -0.170174 0.0504312 0.169032 0.0506914 0.170187 0.0505302 0.170462 0.0502959 0.16896 0.0504626 0.169566 0.0504798 0.169751 -0.0504382 -0.169518 -0.0514477 -0.174294 -0.0505519 -0.169263 0.0501016 0.168082 0.0505176 0.16909 0.0501283 0.168621 0.0504241 0.170172 -0.0507813 -0.170781 0.0507239 0.171011 -0.0503024 -0.168852 -0.0506762 -0.171216 -0.05059 -0.170479 0.0507607 0.171896 -0.0502331 -0.168571 -0.00197819 -0.00571602 -0.0504391 -0.169627 -0.0506649 -0.170322 0.0501973 0.169058 0.0509385 0.171206 0.0502857 0.169087 -0.0507969 -0.171539 -4.41501e-07 -4.52182e-07 6.63169e-08 1.55756e-07 -2.81661e-07 -8.52556e-07 -3.01923e-07 -6.21039e-07 -5.07365e-07 -4.11316e-07 -1.03701e-06 1.35286e-07 7.27528e-07 -9.46817e-07 -1.50972e-07 -6.31442e-07 2.89144e-07 -5.49156e-07 5.91833e-07 1.41611e-07 -7.30155e-07 2.30796e-07 1.20057e-07 -2.02579e-07 3.41721e-07 -4.48191e-07 -4.13866e-07 5.23187e-07 6.88574e-07 1.59732e-08 -1.07531e-06 -2.52489e-07 -4.61865e-09 -3.8016e-07 1.06642e-06 -1.01576e-06 6.6126e-07 -4.90994e-07 3.20982e-07 -5.39526e-07 1.74212e-07 5.82713e-07 -1.94411e-07 -7.92479e-07 4.88829e-07 1.06862e-06 2.67694e-08 -9.3226e-07 -3.17244e-07 -2.98851e-07 -9.6613e-07 -3.05403e-07 -6.05919e-07 -9.82883e-07 3.43338e-07 -7.68046e-07 -1.96325e-07 6.70368e-07 -1.37681e-07 -2.87156e-07 5.60712e-07 2.97379e-07 -6.50911e-08 -6.41421e-07 1.01342e-06 -4.8521e-07 8.38183e-08 5.75588e-07 7.67652e-07 -4.41453e-07 -4.23713e-07 -1.7283e-07 5.80746e-07 6.01275e-07 3.49825e-07 1.9383e-07 1.83474e-07 -7.24387e-07 3.03372e-08 -3.40206e-07 -4.60486e-07 -1.11071e-07 2.83677e-07 3.55105e-07 1.18121e-07 -6.21197e-07 7.85845e-07 4.17694e-07 -2.40294e-07 3.86043e-07 -2.21296e-07 7.11688e-07 -6.68097e-07 -4.10316e-07 -4.50968e-07 -1.0378e-06 -4.25357e-07 -8.3377e-07 1.06248e-06 -9.72109e-07 -1.4091e-07 -7.18883e-07 -9.30919e-07 -5.32561e-07 -1.07393e-06 1.18039e-07 7.96949e-07 -2.40435e-07 6.22568e-07 -6.90103e-07 -3.7718e-07 -8.25008e-07 9.5047e-07 4.62459e-07 2.6893e-07 7.93873e-07 5.50395e-07 -8.62158e-07 9.85432e-07 -1.46298e-07 -6.62445e-07 7.59246e-07 -8.93161e-07 -6.57778e-07 3.43677e-07 2.82917e-07 8.71325e-07 -5.04097e-07 9.39834e-07 -4.63267e-07 5.82749e-07 -2.48437e-07 6.61609e-07 8.01107e-07 6.03066e-07 1.04163e-06 -4.22101e-07 6.2471e-07 4.78654e-07 -6.36038e-07 -9.57931e-07 2.95064e-07 9.27677e-07 -6.76573e-07 3.86386e-07 7.20988e-07 5.38415e-07 1.59991e-07 5.48559e-07 3.47592e-07 7.12745e-07 -7.06895e-08 -4.87892e-07 5.32188e-07 1.05548e-06 5.48838e-07 -9.5723e-07 3.73676e-07 7.24753e-07 -8.633e-07 -7.77466e-07 4.4421e-07 8.16515e-07 -3.7753e-08 1.43634e-07 -3.58263e-07 -2.96228e-07 1.90489e-07 8.71348e-08 2.89741e-07 1.4589e-08 9.50035e-07 -1.09596e-07 -8.94424e-07 -1.95086e-07 -9.37835e-07 4.28144e-07 9.8255e-07 -4.04501e-07 2.36978e-07 7.14631e-07 6.86381e-07 -1.1072e-07 2.53629e-07 8.77679e-07 -5.20835e-07 -6.77617e-07 -1.06371e-06 2.44105e-07 -5.54643e-08 4.58517e-07 -2.15677e-07 -9.83855e-07 5.48016e-07 9.35939e-07 -4.73419e-07 3.62835e-07 -5.53354e-08 7.51429e-07 5.06889e-07 -1.74046e-07 4.60157e-07 -8.56069e-07 4.3675e-07 -2.55742e-07 -9.61073e-07 9.26396e-07 1.07615e-06 -9.84166e-07 4.44207e-07 -6.138e-07 -1.03508e-06 2.06792e-07 -6.42486e-08 8.36652e-07 -1.67817e-07 -5.80286e-07 5.2025e-07 -3.08209e-07 3.77576e-07 9.02515e-07 -9.68268e-07 -5.25349e-07 5.56776e-07 2.43477e-07 -4.76792e-07 -8.12087e-07 9.25038e-07 -2.13025e-07 -7.29112e-07 -3.3553e-07 7.01616e-07 -1.31345e-08 -8.2498e-07 1.02744e-06 7.08759e-07 2.18633e-07 -9.8884e-07 5.63946e-07 9.20717e-07 2.23074e-07 -7.44127e-07 9.90941e-07 -9.41637e-07 -1.03998e-06 -5.48659e-08 -4.07434e-07 -7.79781e-07 -6.10431e-07 -1.0231e-06 5.87107e-07 4.36998e-07 8.39096e-07 -2.63357e-07 -4.80563e-07 -2.41971e-08 3.4423e-07 2.25648e-07 -5.35235e-07 6.49773e-07 -2.18409e-07 -5.31536e-07 -9.24942e-07 1.03051e-06 -7.34914e-07 -1.8481e-07 -6.38228e-07 7.90938e-07 -6.38344e-07 2.3147e-08 -5.15126e-07 6.45361e-08 -8.45932e-07 7.93829e-07 2.76869e-07 -6.01317e-07 -2.19656e-07 3.55494e-07 1.02637e-06 5.41708e-07 3.98029e-07 -2.12115e-07 -4.56671e-07 -5.30819e-07 6.43843e-07 -2.06227e-07 3.89551e-07 2.65027e-07 7.25165e-07 3.28839e-08 4.22327e-07 -3.06954e-08 3.02291e-07 1.18053e-07 -3.80975e-07 -1.00627e-06 3.37556e-07 2.74723e-07 -1.30172e-07 1.80999e-07 2.84725e-07 8.41807e-07 8.20452e-07 -6.59286e-07 -7.78656e-07 7.66759e-07 8.75678e-07 -6.55022e-07 -2.34663e-07 7.32037e-07 -5.82166e-07 9.68221e-07 -4.42333e-07 2.99602e-07 -2.90871e-07 4.40358e-07 -5.35006e-07 -9.76309e-07 -7.55845e-08 8.90105e-07 2.99151e-07 -5.03382e-07 -1.30382e-07 6.42182e-07 -1.15704e-07 7.64306e-07 1.74904e-08 8.92187e-08 -9.30925e-07 -5.22092e-07 9.42653e-07 1.01816e-06 3.55798e-07 1.76896e-07 -7.14501e-07 -9.87251e-07 -8.33869e-07 2.44143e-07 -9.24166e-07 8.9269e-07 1.05766e-06 5.63617e-07 6.01253e-08 -7.56724e-07 1.14882e-07 1.00899e-06 -9.54969e-07 3.32303e-07 -6.33449e-07 -6.64529e-07 4.87836e-07 7.05753e-07 -1.95689e-07 1.90346e-07 -9.51627e-07 5.52881e-07 -3.49402e-08 8.65728e-07 -8.39415e-07 6.03603e-07 -3.82823e-07 -4.8691e-07 9.25546e-08 -5.41571e-07 -1.52973e-07 9.8631e-07 5.69798e-07 8.23821e-07 -4.46927e-07 -8.56004e-07 1.06712e-06 -1.19529e-08 6.88835e-08 -6.98598e-07 -2.17746e-07 -3.64057e-08 6.68302e-07 -8.87238e-07 -1.07513e-06 8.9942e-07 9.94194e-07 4.20748e-07 3.30663e-07 1.12424e-07 -3.56321e-07 3.68134e-07 4.6373e-07 2.48837e-07 5.66101e-07 -1.69397e-07 4.76028e-07 5.1185e-07 -6.72228e-07 -8.44916e-07 4.33067e-07 7.11985e-07 -2.20305e-07 -3.1628e-07 -2.13526e-07 -4.75876e-07 6.19349e-07 5.52664e-07 -7.74536e-07 -4.1585e-07 4.28086e-07 6.18318e-07 -4.34025e-08 6.63945e-07 -5.2822e-07 -6.98236e-07 -1.25743e-07 7.74877e-08 -7.37269e-07 -2.63692e-07 4.77357e-08 1.07399e-06 -1.19133e-07 -7.0527e-07 -6.98097e-07 7.32771e-07 2.91501e-07 -8.53638e-07 -1.03704e-06 -8.01589e-07 -4.61688e-07 3.68948e-07 -1.24074e-07 -3.03773e-07 -2.5124e-07 -9.05046e-07 8.81989e-07 -1.48244e-08 9.20425e-08 -8.01602e-08 1.50047e-07 9.1126e-07 2.89387e-08 -5.03047e-07 -8.58619e-09 4.0888e-07 9.23523e-07 8.02241e-07 -6.37261e-07 5.57289e-07 6.17583e-07 -1.00629e-06 4.54844e-07 6.2191e-07 2.38534e-07 -5.59648e-07 6.40398e-07 -8.51633e-07 6.47539e-07 2.24825e-07 5.89864e-07 -2.47709e-07 -9.26933e-07 -3.60304e-07 -2.14989e-07 4.47311e-07 9.49354e-08 -1.90795e-07 -6.33997e-07 2.03038e-08 -3.07955e-07 2.01055e-07 9.27211e-07 -7.83786e-07 -3.29799e-07 -5.19426e-07 -5.01276e-07 -1.77363e-07 4.58712e-07 -4.86272e-07 4.82579e-07 -9.40373e-07 -7.10858e-07 -1.86803e-07 4.05195e-07 -4.97002e-07 1.04935e-07 -9.09801e-08 4.50547e-08 -3.64579e-07 -4.45743e-07 1.17796e-07 7.58329e-07 3.34737e-07 7.43663e-07 9.41834e-07 6.36255e-07 9.74737e-07 -2.56215e-07 2.02109e-07 -3.99204e-07 -1.00941e-06 8.01833e-07 1.03778e-06 -6.85284e-08 9.89344e-07 8.84668e-07 -2.62939e-07 4.5053e-07 -1.06161e-06 -3.76553e-07 1.00446e-06 -1.04661e-06 -7.78278e-07 1.0407e-06 -5.16412e-07 -1.04362e-06 3.08863e-09 6.9314e-07 8.65678e-07 8.5386e-07 2.72775e-07 9.2845e-09 1.05133e-07 -6.14598e-07 6.63068e-07 5.48149e-07 6.4045e-07 -1.27773e-07 -2.1583e-07 5.21549e-07 7.31944e-07 -3.50958e-07 -3.46619e-08 1.39105e-07 9.30135e-07 -1.02201e-06 2.71802e-07 -5.08156e-07 -6.47849e-07 7.07368e-07 -6.97867e-07 -3.43096e-07 1.06828e-06 3.95774e-07 8.60777e-07 -5.42289e-07 -5.09188e-07 -3.33692e-07 -4.9681e-07 7.09479e-07 -8.38247e-07 -9.57338e-07 -3.53612e-07 -7.32836e-07 -7.51122e-07 9.20247e-07 -1.66452e-07 6.34034e-07 4.02513e-07 5.40639e-07 1.43404e-07 6.79373e-07 -3.66249e-07 -4.36788e-08 -1.06263e-06 5.64918e-07 -6.26843e-07 -9.98022e-07 1.78097e-07 6.60013e-07 -4.72171e-07 4.82302e-07 -2.56029e-07 -7.16953e-07 8.12271e-07 9.57712e-07 -6.32427e-08 -3.81657e-07 -8.84328e-07 -1.40599e-07 -9.22266e-07 6.95653e-07 -8.88698e-07 5.06312e-07 -1.03709e-06 -3.61419e-07 8.59462e-07 -8.17775e-07 6.81394e-07 6.25239e-07 7.79858e-07 4.89683e-07 -6.63747e-07 -8.03085e-07 -6.07726e-07 -9.97101e-07 -8.92418e-08 2.95276e-07 -9.31195e-07 5.13358e-08 -4.70957e-09 -4.82762e-07 -7.86889e-07 1.98729e-07 6.04456e-07 -9.36071e-07 1.87061e-07 2.07817e-07 -6.41709e-07 8.90729e-07 -2.54074e-07 -8.08597e-07 -7.92477e-07 8.39186e-07 -4.06337e-07 -5.36038e-07 -1.05428e-07 -1.34686e-07 -4.43831e-07 -9.72249e-07 -1.0703e-06 -1.72068e-07 -1.00014e-06 1.00102e-06 -5.72527e-07 1.44049e-07 2.68403e-07 -2.12788e-07 -1.72172e-07 -6.54248e-07 -6.3742e-07 -8.38229e-07 -5.13968e-07 5.76991e-07 -5.40958e-07 4.81534e-07 -5.26483e-07 -8.01871e-07 1.77867e-07 -1.00658e-06 3.56585e-07 -9.39801e-07 5.12009e-07 -3.34744e-07 -2.48071e-07 1.01572e-06 4.84495e-07 5.63524e-08 2.88323e-07 -5.81488e-07 6.68875e-07 -9.80667e-07 5.00814e-07 -6.23856e-07 -2.31427e-07 3.49983e-07 8.08907e-07 -3.34843e-07 2.97579e-07 -9.6168e-07 -6.72104e-07 -4.17724e-07 6.65971e-07 -1.0446e-06 1.02562e-06 4.47625e-07 -9.02471e-07 -1.32152e-09 -1.84303e-07 -4.21518e-07 6.11061e-07 -5.49338e-07 3.028e-07 -7.06488e-07 5.01238e-07 -7.83809e-07 -2.74091e-08 7.45702e-07 5.14678e-07 -9.33472e-07 6.03198e-07 7.03121e-07 8.12068e-07 6.96034e-08 -8.20057e-08 6.19244e-08 2.02773e-07 2.08939e-07 2.62179e-10 -1.01069e-06 -4.08027e-07 1.67772e-07 6.13263e-07 3.50465e-07 4.19616e-08 -9.87587e-07 1.01329e-06 8.10914e-07 -9.67834e-07 -2.22899e-07 1.63714e-07 -2.66423e-07 1.69034e-07 6.77261e-07 -7.87564e-07 1.02072e-06 8.76872e-07 2.59476e-07 6.89868e-07 -7.98358e-07 -5.61942e-07 1.05333e-06 -3.91025e-07 3.47866e-07 8.89212e-07 -9.86712e-07 -2.69033e-07 1.66202e-07 5.60502e-07 -7.5689e-07 4.92742e-07 6.28186e-08 3.76869e-07 3.04099e-07 9.39016e-07 6.6739e-07 -9.56842e-08 1.9345e-07 6.22518e-07 -2.44594e-07 1.30944e-07 1.04013e-06 6.04322e-07 1.02672e-06 7.05466e-07 8.82915e-07 -2.81109e-07 1.03038e-07 5.86016e-07 -1.0473e-06 -7.54928e-08 -4.39318e-07 1.55816e-07 1.03416e-06 8.95846e-07 5.88005e-08 -4.45566e-07 -6.80083e-07 -2.80802e-07 -1.94131e-07 -3.34371e-08 -4.43232e-07 -2.27064e-07 -8.80638e-07 4.78082e-07 -1.05656e-06 -8.67563e-07 -7.92672e-07 -6.44114e-07 3.45455e-07 -6.75314e-07 4.42423e-07 1.00365e-06 9.27503e-07 6.08684e-07 1.70398e-07 7.66853e-07 -4.20598e-07 6.28022e-07 -3.99679e-07 6.59813e-07 2.84551e-07 -5.41001e-07 3.31864e-07 1.25254e-07 -3.47014e-07 -1.54569e-07 1.32873e-07 -2.92688e-07 3.87323e-07 -9.42567e-07 9.14097e-07 7.08052e-07 2.10306e-07 1.02309e-07 -3.91016e-07 -1.76457e-07 8.21732e-08 -1.17343e-07 7.99238e-07 6.79949e-07 7.41449e-07 -7.49223e-07 2.97095e-07 2.07818e-07 1.03856e-06 -9.44783e-07 4.58431e-09 -9.55222e-08 -2.94229e-07 -9.63357e-07 -9.81275e-07 -9.09887e-08 8.16827e-07 4.26724e-07 -3.15566e-07 -3.04213e-08 9.75103e-07 9.88881e-07 -5.57684e-07 -1.22101e-07 -3.83007e-07 6.34121e-07 7.81856e-07 -3.93437e-07 -6.10039e-07 -9.17254e-08 -7.65694e-07 4.21595e-07 -6.77049e-07 8.01633e-07 -8.73354e-07 6.6955e-07 -3.97227e-07 8.31217e-07 -3.61426e-07 5.46884e-07 -1.06701e-06 6.88455e-07 8.82846e-07 8.60728e-07 -9.7877e-07 -9.83758e-07 7.55092e-07 -7.65533e-07 -5.31475e-07 -9.44138e-07 -2.22563e-07 -8.4552e-07 -4.37551e-07 6.72628e-07 -2.3817e-07 6.75276e-07 -1.03717e-06 2.46531e-07 6.48202e-07 9.865e-07 8.7998e-07 2.47039e-07 7.66715e-07 -1.05823e-07 1.07612e-06 1.03773e-06 4.95573e-07 -6.85015e-07 7.77395e-07 6.57313e-07 -4.61452e-07 4.50333e-07 9.27075e-07 9.96734e-07 6.54917e-07 8.91597e-07 8.55183e-07 7.68431e-07 -6.88627e-07 -5.35462e-07 -3.24384e-07 -3.99424e-07 2.66056e-07 3.46313e-07 -1.1109e-07 2.60959e-08 -7.14318e-07 4.80404e-07 5.44577e-07 -4.28003e-07 -7.09996e-07 -6.2917e-07 -1.04923e-06 4.88651e-07 -9.21695e-07 1.2764e-07 -8.31806e-07 -8.4737e-07 7.42314e-08 -2.31708e-07 7.5005e-07 8.70158e-08 -3.5687e-07 4.2137e-07 6.62897e-07 -8.07505e-07 -1.00499e-06 4.37003e-07 -9.51666e-07 6.73413e-07 7.39582e-07 -7.93081e-07 7.7174e-07 -7.75782e-07 4.73882e-07 7.03778e-07 -9.19236e-07 6.7764e-07 -8.72564e-07 -2.20173e-07 2.45849e-07 -3.31286e-07 -5.46763e-07 -1.04081e-06 -3.85564e-08 4.71153e-07 5.89346e-07 7.72209e-07 5.8577e-07 -4.40048e-07 -8.30908e-07 -2.87942e-07 -5.53917e-07 9.85259e-07 3.489e-07 9.02961e-07 5.65114e-07 3.6254e-07 -4.42557e-07 9.45307e-07 -4.82535e-07 -1.28817e-07 1.01603e-06 -8.37281e-07 1.17714e-07 9.6725e-07 -6.19433e-07 5.86541e-07 -1.35312e-07 3.7714e-07 -1.03889e-06 -1.01586e-06 6.11117e-07 1.00099e-06 -7.77494e-07 6.03478e-07 7.45352e-07 5.08394e-07 -5.05789e-07 -7.48258e-07 -4.50025e-07 -4.00906e-07 9.22727e-07 9.01129e-09 2.14516e-07 -8.14191e-07 6.26458e-07 1.20963e-07 -1.02549e-06 3.33024e-07 -8.08945e-07 5.5435e-07 8.1624e-07 1.37869e-09 -9.56116e-07 -4.48769e-08 -3.96058e-07 7.73564e-07 -4.46497e-08 -8.06078e-07 -2.3532e-07 -4.60993e-07 -8.01429e-07 5.87616e-07 6.79459e-08 -9.05177e-07 6.82664e-07 -2.78754e-07 -5.87413e-07 -7.72826e-07 -6.24893e-07 -6.12509e-07 -8.69031e-07 3.18714e-07 -5.06359e-07 3.65303e-07 -9.22916e-07 -3.46194e-07 1.89721e-07 5.35204e-07 8.86519e-07 8.11435e-07 8.71531e-07 5.84921e-07 6.24673e-07 1.00131e-06 9.1662e-07 -7.79241e-09 -8.31953e-07 4.86915e-07 5.01745e-07 1.06787e-06 -2.49457e-07 -9.79222e-07 1.02931e-06 5.48985e-07 -5.95355e-07 -3.32714e-07 -9.39508e-07 -7.87024e-07 -3.05851e-07 5.54045e-08 2.42798e-07 6.64687e-07 4.55879e-07 -4.27972e-09 -5.14495e-07 -6.55078e-07 -1.92974e-07 -8.37783e-07 -4.96643e-07 2.39231e-07 7.43914e-07 7.38375e-07 7.59889e-07 -9.59446e-07 6.21041e-08 -1.02446e-06 5.56456e-07 -2.33391e-07 -1.06527e-06 -8.53263e-07</Parameters>
      </RecurrentLayer>
      <PerceptronLayer>
         <LayerName>perceptron_layer</LayerName>
         <InputsNumber>32</InputsNumber>
         <NeuronsNumber>1</NeuronsNumber>
         <ActivationFunction>HyperbolicTangent</ActivationFunction>
         <Parameters>-0.0161559 0.181301 0.183345 0.182189 0.182666 -0.182745 0.181294 0.182181 0.182979 0.181393 0.181901 0.182159 -0.182108 -0.187143 -0.181487 0.179984 0.181363 0.181029 0.182675 -0.18323 0.18362 -0.18154 -0.183631 -0.182978 0.184376 -0.180734 -0.00599835 -0.182181 -0.182841 0.181599 0.184028 0.181355 -0.184246</Parameters>
      </PerceptronLayer>
      <UnscalingLayer>
         <UnscalingNeuronsNumber>1</UnscalingNeuronsNumber>
         <Descriptives Index="1">
            <Minimum>104</Minimum>
            <Maximum>622</Maximum>
            <Mean>282.627</Mean>
            <StandardDeviation>119.176</StandardDeviation>
            <Scaler>MinimumMaximum</Scaler>
         </Descriptives>
      </UnscalingLayer>
      <BoundingLayer>
         <BoundingNeuronsNumber>1</BoundingNeuronsNumber>
         <Item Index="1">
            <LowerBound>-3.40282e+38</LowerBound>
            <UpperBound>3.40282e+38</UpperBound>
         </Item>
         <UseBoundingLayer>1</UseBoundingLayer>
      </BoundingLayer>
   </Layers>
   <Outputs>
      <OutputsNumber>1</OutputsNumber>
      <Output Index="1">Passengers_ahead_1</Output>
   </Outputs>
</NeuralNetwork>
