<NeuralNetwork>
    <Inputs>
        <InputsNumber>6</InputsNumber>
        <Item Index="1">
            <Name>longitudinal_center_buoyancy</Name>
            <Units></Units>
            <Description></Description>
        </Item>
        <Item Index="2">
            <Name>prismatic_coefficient</Name>
            <Units></Units>
            <Description></Description>
        </Item>
        <Item Index="3">
            <Name>length_displacement_ratio</Name>
            <Units></Units>
            <Description></Description>
        </Item>
        <Item Index="4">
            <Name>beam_draught_ratio</Name>
            <Units></Units>
            <Description></Description>
        </Item>
        <Item Index="5">
            <Name>length_beam_ratio</Name>
            <Units></Units>
            <Description></Description>
        </Item>
        <Item Index="6">
            <Name>froude_number</Name>
            <Units></Units>
            <Description></Description>
        </Item>
    </Inputs>
    <ScalingLayer>
        <ScalingNeuronsNumber>6</ScalingNeuronsNumber>
        <Statistics Index="1">
            <Minimum>-5</Minimum>
            <Maximum>0</Maximum>
            <Mean>-2.38182</Mean>
            <StandardDeviation>1.51322</StandardDeviation>
        </Statistics>
        <Statistics Index="2">
            <Minimum>0.53</Minimum>
            <Maximum>0.6</Maximum>
            <Mean>0.564136</Mean>
            <StandardDeviation>0.02329</StandardDeviation>
        </Statistics>
        <Statistics Index="3">
            <Minimum>4.34</Minimum>
            <Maximum>5.14</Maximum>
            <Mean>4.78864</Mean>
            <StandardDeviation>0.253057</StandardDeviation>
        </Statistics>
        <Statistics Index="4">
            <Minimum>2.81</Minimum>
            <Maximum>5.35</Maximum>
            <Mean>3.93682</Mean>
            <StandardDeviation>0.548193</StandardDeviation>
        </Statistics>
        <Statistics Index="5">
            <Minimum>2.73</Minimum>
            <Maximum>3.64</Maximum>
            <Mean>3.20682</Mean>
            <StandardDeviation>0.247998</StandardDeviation>
        </Statistics>
        <Statistics Index="6">
            <Minimum>0.125</Minimum>
            <Maximum>0.45</Maximum>
            <Mean>0.2875</Mean>
            <StandardDeviation>0.100942</StandardDeviation>
        </Statistics>
        <ScalingMethod>MinimumMaximum</ScalingMethod>
    </ScalingLayer>
    <MultilayerPerceptron>
        <Architecture>6 30 1</Architecture>
        <LayersActivationFunction>HyperbolicTangent Linear</LayersActivationFunction>
        <Parameters>1.78596 2.34378 -1.38228 0.635779 0.786016 1.78322 -0.161995 -0.291152 -0.0383305 1.98029 -1.01115 -0.308283 1.152 2.3561 -1.54244 -0.68659 -0.497138 -1.80135 -0.159709 1.16025 -0.384953 -1.41725 -0.00825891 0.166963 -1.68022 0.529342 -0.682044 0.286858 1.82339 0.889472 -0.750128 1.45437 -0.652716 0.241334 -0.635492 2.61762 1.47199 -1.27909 2.04499 0.218658 -1.87077 -0.917406 -1.40204 0.10343 -0.189083 -0.762774 -0.332014 -0.853767 1.01557 0.992535 -0.113909 1.44244 1.0991 0.184157 -1.40307 0.749554 2.29411 -0.33783 0.21701 -0.991772 0.150389 -0.222088 -0.926766 -1.25963 -0.407639 0.335563 0.189151 -2.20357 -0.313503 -0.905648 4.17985 0.513004 -0.486 0.00511503 0.667357 -0.662452 -2.49723 -1.18749 -0.199665 1.33307 1.05465 -0.825994 -0.427084 -0.300504 3.0829 2.76408 0.106164 -1.48571 0.297908 0.28263 -1.38059 -2.04542 -0.988697 0.149064 -1.31606 -1.52921 -1.36174 0.0102463 -1.57702 0.0781677 -0.324805 -0.0734002 -0.635888 0.268615 1.35106 -0.885245 0.124286 -1.31051 1.21533 1.38017 -0.698822 -1.90241 0.64914 -0.11062 1.01684 -0.959866 -0.273062 1.54106 0.409731 2.07671 -0.14611 -0.690675 -0.597187 1.25828 1.51614 0.207064 0.797963 2.74726 -0.348305 -0.643581 -1.23189 1.41442 -1.63232 3.16117 0.343169 0.380226 0.722762 -0.455688 0.37453 -2.54583 0.202373 2.93151 -0.316788 2.25923 1.71366 -0.452419 -2.27605 -1.09968 1.49976 -0.284478 0.743075 0.515519 1.0566 1.23994 -0.743828 -0.925493 -0.233039 0.135844 -0.821406 0.658874 -0.468124 -0.377809 -1.21151 0.743937 0.165251 -0.254762 -1.48641 -0.800148 -1.60146 -0.784868 -0.413839 -0.504825 0.530297 -0.18288 0.820384 2.14231 0.0401507 0.160953 -0.0502472 0.326531 0.0510702 -2.11711 -0.481296 -1.62976 0.458203 -1.34044 -1.64062 -0.819955 1.05436 1.22473 2.06393 -0.457465 1.4131 0.440186 2.30258 -0.604895 0.806115 1.7961 -0.507708 0.840841 1.60446 1.46004 -0.847471 0.703704 -0.564089 0.696827 0.0326191 0.414329 -0.600384 0.214717 1.25495 0.194438 -0.0389014 -0.135999 -0.823931 -0.442464 0.361296 0.724378 -0.142642 -0.833039 0.131569 -0.927411 -0.0349092 -0.378514 0.0153638 -0.724012 0.0155804 -0.0414233 -0.189352 0.133954 -0.481897 0.0845256 0.0700213 -0.0501068 -0.156261 -1.38234 -1.56994 0.937662 -0.780254 1.17554 0.413252</Parameters>
    </MultilayerPerceptron>
    <UnscalingLayer>
        <UnscalingNeuronsNumber>1</UnscalingNeuronsNumber>
        <Statistics Index="1">
            <Minimum>0.01</Minimum>
            <Maximum>62.42</Maximum>
            <Mean>10.4954</Mean>
            <StandardDeviation>15.1605</StandardDeviation>
        </Statistics>
        <UnscalingMethod>MinimumMaximum</UnscalingMethod>
    </UnscalingLayer>
    <Outputs>
        <OutputsNumber>1</OutputsNumber>
        <Item Index="1">
            <Name>residuary_resistance</Name>
            <Units></Units>
            <Description></Description>
        </Item>
    </Outputs>
</NeuralNetwork>
