<NeuralNetwork>
   <Inputs>
      <InputsNumber>5</InputsNumber>
      <Input Index="1">frequency</Input>
      <Input Index="2">angle_of_attack</Input>
      <Input Index="3">chord_lenght</Input>
      <Input Index="4">free-stream_velocity</Input>
      <Input Index="5">suction_side_displacement_thickness</Input>
   </Inputs>
   <Layers>
      <LayersTypes>Scaling Perceptron Perceptron Unscaling Bounding</LayersTypes>
      <ScalingLayer>
         <ScalingNeuronsNumber>5</ScalingNeuronsNumber>
         <ScalingNeuron Index="1">
            <Descriptives>200\20000\2886.38\3152.57</Descriptives>
            <Scaler>MeanStandardDeviation</Scaler>
         </ScalingNeuron>
         <ScalingNeuron Index="2">
            <Descriptives>0\22.2\6.7823\5.91813</Descriptives>
            <Scaler>MeanStandardDeviation</Scaler>
         </ScalingNeuron>
         <ScalingNeuron Index="3">
            <Descriptives>0.0254\0.3048\0.136548\0.0935407</Descriptives>
            <Scaler>MeanStandardDeviation</Scaler>
         </ScalingNeuron>
         <ScalingNeuron Index="4">
            <Descriptives>31.7\71.3\50.8607\15.5728</Descriptives>
            <Scaler>MeanStandardDeviation</Scaler>
         </ScalingNeuron>
         <ScalingNeuron Index="5">
            <Descriptives>0.000400682\0.0584113\0.0111399\0.0131502</Descriptives>
            <Scaler>MeanStandardDeviation</Scaler>
         </ScalingNeuron>
      </ScalingLayer>
      <PerceptronLayer>
         <LayerName>perceptron_layer_1</LayerName>
         <InputsNumber>5</InputsNumber>
         <NeuronsNumber>100</NeuronsNumber>
         <ActivationFunction>HyperbolicTangent</ActivationFunction>
         <Parameters>0.0581426 0.0551679 -0.128566 -0.110146 0.0719086 0.0269654 -0.0247906 0.0872863 -0.0751995 -0.118257 -0.0609405 -0.106427 0.0958727 0.121893 0.0589603 0.0432151 0.0184079 -0.110335 -0.0504929 0.0318443 -0.0705791 0.11711 0.00219364 -0.117416 -0.0546421 -0.028635 0.123665 0.0900386 -0.0454836 0.0563301 -0.134004 -0.0920937 -0.0654029 -0.0266646 0.0706566 -0.0274471 -0.00461088 -0.0714704 -0.112885 0.0977828 0.0372981 0.0985063 0.0720539 0.00345982 -0.0751068 -0.0661021 0.112811 0.0587568 -0.107655 -0.0380147 -0.112884 -0.123188 0.0445101 0.000535579 0.070074 0.114383 -0.10862 -0.0176566 0.0857674 0.0971698 -0.143479 -0.072836 0.0507907 0.0175737 -0.12469 0.0898275 -0.0231005 -0.0309494 -0.0764993 0.0846789 -0.0105309 0.0122112 -0.0955341 -0.0303568 0.0315803 -0.0328803 -0.0365843 -0.00679309 0.0830328 -0.0120049 0.0526194 -0.0706219 0.0801556 -0.0222097 0.000408199 -0.0180922 -0.0646387 0.0295489 -0.015517 -0.0471204 -0.0614267 -0.037158 -0.0266959 -0.129081 -0.124824 0.088007 0.0310232 -0.111935 -0.1212 -0.0330017 0.0533972 0.0530112 0.132047 -0.10355 0.118668 0.0725646 -0.026407 0.0792294 -0.0893853 -0.0410026 0.111093 -0.117648 0.0224293 0.0744251 0.0288616 0.0824609 0.0344866 -0.0498873 -0.00204463 0.0579702 0.0619238 -0.104123 -0.109598 0.0887826 -0.0759988 0.0967146 -0.144197 0.0309866 -0.0330541 -0.0935791 0.0534032 -0.0849166 0.0845842 0.0202357 -0.0764997 -0.0295515 -0.101032 0.088661 -0.0696067 0.0108188 -0.0462659 -0.00858151 0.124136 -0.0486291 -0.127502 0.0660875 0.0390527 -0.0613898 -0.0921771 0.0780167 -0.00359068 0.105046 -0.168663 0.104011 0.009473 0.0474479 0.106427 0.125783 -0.030318 0.0750092 -0.0652598 0.0149096 -0.0834685 0.0812834 0.101319 -0.0931519 0.04527 -0.0695546 0.0410322 -0.0639872 0.123343 0.0246062 0.0417927 -0.12795 -0.00853406 -0.084648 0.121707 -0.0988161 0.0787827 0.00126925 0.122238 0.0555079 -0.025473 0.0768394 -0.0847967 0.066933 0.0185492 0.154287 -0.0174952 0.0901958 -0.0634997 0.0330547 -0.128682 0.0291374 0.0988648 -0.00894894 0.0657802 0.0900946 -0.049366 0.0129364 -0.127209 -0.0491753 0.0270683 0.0386473 0.0919311 -0.088647 -0.0808502 0.0029541 -0.110338 0.0334109 -0.0138536 0.0847813 -0.0971464 -0.128445 0.0397957 -0.0969534 -0.0800721 0.101838 0.0984409 -0.0558717 0.116886 0.125312 0.00265598 0.0396312 0.0413139 0.130535 -0.113783 0.000590454 -0.134909 0.101565 0.0721176 0.103075 -0.0567342 -0.127084 -0.0280223 -0.116962 0.036701 0.032073 0.0377112 0.0161882 -0.0990519 -0.0341115 0.0181862 -0.00604114 -0.116547 -0.0906383 -0.0644623 0.0279593 -0.107085 0.0813224 0.0401372 -0.0463364 0.0522827 0.0340408 0.0692768 0.00310392 -0.0931082 -0.061183 0.0320807 0.0588708 -0.0614295 -0.0578733 0.0381489 0.0563949 0.125701 0.14118 -0.0406761 -0.0635983 -0.00881787 0.0766405 0.0312746 -0.0536101 0.105998 0.139574 -0.06376 -0.0293565 -0.138586 -0.0610592 0.0347274 -0.080743 -0.0534124 -0.0837289 -0.0813274 0.00982704 0.0689482 -0.0223219 0.0126421 0.166151 0.100512 0.0204431 -0.120866 0.107371 -0.0186577 0.105048 -0.00303376 0.113436 -0.0813458 0.0959442 -0.0957348 0.0037763 -0.0845791 -0.0707715 -0.140975 -0.0616966 -0.130979 -0.0669421 -0.0911845 -0.109068 0.047551 -0.135931 -0.0476747 0.078578 0.0531397 -0.0969795 0.0289647 0.0204922 -0.0179387 0.0925215 -0.0119202 0.0770268 0.0695404 0.098235 -0.0808393 0.000300232 -0.025195 0.151831 0.00992463 0.0619535 -0.123545 -0.066803 0.0395383 -0.111304 -0.0653706 -0.0487734 0.0695179 -0.0562562 -0.113846 -0.0786099 -0.040669 -0.104245 0.0523518 0.107201 0.0560455 0.0348776 0.122398 -0.129403 0.0546375 0.088408 -0.0921991 0.00465523 0.121363 -0.0206632 0.146893 0.00594613 0.152906 0.0982331 0.0179543 0.0240328 -0.0977674 -0.0535253 0.123928 -0.0935524 -0.105794 0.0684594 0.0162033 0.0886133 -0.10262 -0.0283389 0.0796175 -0.129546 0.110097 0.0462503 -0.0329062 0.0752957 0.0334697 0.0199124 -0.0534014 0.0449813 0.112086 0.0923808 -0.0761028 0.120015 0.0107956 -0.049721 -0.0549094 -0.0877722 -0.0764352 -0.0271802 0.0473273 -0.105174 0.0674313 0.115703 -0.0247645 -0.132002 0.0542636 0.122822 -0.0492844 0.0526231 -0.0128071 -0.0914944 -0.0312215 -0.0264164 -0.0540512 -0.0963891 -0.111976 0.0396249 0.0065123 0.0575213 -0.0655753 0.0349177 -0.0413352 0.0356989 -0.0842469 -0.128041 0.0884699 -0.154008 0.00877618 -0.00998815 -0.0437902 -0.142687 0.0627774 -0.115842 0.00181675 0.0752705 -0.0978371 0.0221311 0.0617564 -0.0168021 -0.0439183 -0.126298 -0.0636396 0.111688 -0.0167821 -0.0226996 -0.103557 -0.0399814 0.0324285 -0.0772604 -0.103566 -0.0294345 0.0639572 0.0668878 -0.00868136 -0.141531 0.0456831 0.100196 0.105173 0.087653 0.0910024 -0.06481 0.0805287 -0.0251379 -0.0482217 -0.0792344 0.104536 0.0844785 -0.0259709 0.0100859 -0.0464108 0.0394237 0.162409 0.032781 -0.0798832 0.0371821 0.111923 0.146224 0.0203964 -0.0890804 0.119634 0.0325778 0.044838 -0.106154 -0.0329659 -0.0372314 -0.138468 -0.0178716 -0.0435206 -0.0595412 0.0604221 -0.110084 0.116251 0.0806087 0.108806 -0.111514 0.0192122 0.00172622 -0.0190425 -0.0763444 0.100656 0.101824 -0.177536 -0.100813 0.0165027 0.0039146 -0.123063 -0.0235597 -0.120036 -0.103836 0.110679 0.0680932 -0.0389749 0.0182947 0.0895276 -0.136115 -0.0932547 -0.0585385 0.0946062 0.0959387 0.0356843 -0.0481104 0.104721 0.00103433 -0.0732989 -0.118948 0.127439 0.0148052 0.119966 0.109546 -0.0232659 0.00562245 0.17767 -0.0128953 0.0936188 0.0837722 0.0479215 0.0283503 0.0978914 0.0950495 0.109424 0.033983 0.0350954 -0.0210307 -0.12351 0.0999085 -0.0677003 0.0808064 -0.0758908 0.0197268 -0.102053 -0.115014 0.150818 -0.0518415 -0.0913201 -0.0280027 0.00412745 0.00166146 0.0847619 0.154029 -0.1199 -0.0462148 0.0957468 0.0248489 0.165277 -0.00602362 -0.0535799 0.0135765 0.029822 0.0595196 0.119176 0.074082 0.0642074 0.0191109 0.0326548 -0.138634 -0.00529874 -0.104011 -0.00915393 0.0390531 0.0252345 -0.0980907 -0.105372 0.118716 -0.084554 0.0616376 -0.106241 0.0551612 0.110307 -0.0779217 0.0237148 0.0300523 -0.103354 -0.0722028 -0.0170319 0.11386 0.111294 0.0313903 0.0047315 0.0393849 -0.0955027 0.0779279 0.119484 0.0398203 0.0107637 0.0858583 0.110643 -0.074953 -0.0497197 0.0902219 0.10366 0.0220054</Parameters>
      </PerceptronLayer>
      <PerceptronLayer>
         <LayerName>perceptron_layer_2</LayerName>
         <InputsNumber>100</InputsNumber>
         <NeuronsNumber>1</NeuronsNumber>
         <ActivationFunction>Linear</ActivationFunction>
         <Parameters>-0.0669833 -0.177415 -0.0967244 -0.00667994 -0.0587502 0.123191 0.0762691 -0.0983914 -0.0407303 0.0214296 -0.0996766 0.127096 -0.129202 -0.0122903 0.0619982 -0.100582 0.0745469 -0.103283 -0.12367 0.0616818 -0.119555 0.111813 -0.0465798 -0.0638131 -0.0371717 -0.124987 -0.132737 -0.0839663 0.107712 0.000377047 0.0236525 0.0606202 0.00141359 -0.0688363 -0.126595 0.0668242 0.116544 0.11997 -0.11148 0.00604416 -0.0148926 0.148982 0.158511 -0.030402 -0.142264 0.0799467 -0.125832 -0.0623396 0.122067 -0.0477831 0.051529 -0.186334 -0.0679602 0.0111681 0.00992664 -0.00222778 -0.0630092 0.0512482 -0.00995993 -0.130293 -0.0658029 0.140125 -0.0963461 0.028583 0.167178 -0.011842 0.0616728 0.0882013 0.116477 -0.111743 -0.010728 -0.0999489 -0.016957 -0.14135 -0.0659211 0.127221 0.00390438 -0.182615 -0.00119895 0.171147 0.075672 -0.0569168 0.0412569 -0.0831998 -0.141378 -0.176842 -0.0729887 0.110265 0.00893191 -0.0631658 -0.137337 -0.139307 -0.0705433 -0.0798256 0.12111 0.0506196 -0.0742325 0.0555989 -0.10362 -0.124158 -0.0677084</Parameters>
      </PerceptronLayer>
      <UnscalingLayer>
         <UnscalingNeuronsNumber>1</UnscalingNeuronsNumber>
         <Descriptives Index="1">
            <Minimum>103.38</Minimum>
            <Maximum>140.987</Maximum>
            <Mean>124.836</Mean>
            <StandardDeviation>6.89866</StandardDeviation>
            <Scaler>MeanStandardDeviation</Scaler>
         </Descriptives>
      </UnscalingLayer>
      <BoundingLayer>
         <BoundingNeuronsNumber>1</BoundingNeuronsNumber>
         <Item Index="1">
            <LowerBound>-3.40282e+38</LowerBound>
            <UpperBound>3.40282e+38</UpperBound>
         </Item>
         <UseBoundingLayer>1</UseBoundingLayer>
      </BoundingLayer>
   </Layers>
   <Outputs>
      <OutputsNumber>1</OutputsNumber>
      <Output Index="1">scaled_sound_pressure_level</Output>
   </Outputs>
</NeuralNetwork>
