<NeuralNetwork>
   <Inputs>
      <InputsNumber>5</InputsNumber>
      <Input Index="1">frequency</Input>
      <Input Index="2">angle_of_attack</Input>
      <Input Index="3">chord_lenght</Input>
      <Input Index="4">free-stream_velocity</Input>
      <Input Index="5">suction_side_displacement_thickness</Input>
   </Inputs>
   <Layers>
      <LayersTypes>Scaling Perceptron Perceptron Unscaling Bounding</LayersTypes>
      <ScalingLayer>
         <ScalingNeuronsNumber>5</ScalingNeuronsNumber>
         <ScalingNeuron Index="1">
            <Descriptives>200\20000\2886.38\3152.57</Descriptives>
            <Scaler>MeanStandardDeviation</Scaler>
         </ScalingNeuron>
         <ScalingNeuron Index="2">
            <Descriptives>0\22.2\6.7823\5.91813</Descriptives>
            <Scaler>MeanStandardDeviation</Scaler>
         </ScalingNeuron>
         <ScalingNeuron Index="3">
            <Descriptives>0.0254\0.3048\0.136548\0.0935407</Descriptives>
            <Scaler>MeanStandardDeviation</Scaler>
         </ScalingNeuron>
         <ScalingNeuron Index="4">
            <Descriptives>31.7\71.3\50.8607\15.5728</Descriptives>
            <Scaler>MeanStandardDeviation</Scaler>
         </ScalingNeuron>
         <ScalingNeuron Index="5">
            <Descriptives>0.000400682\0.0584113\0.0111399\0.0131502</Descriptives>
            <Scaler>MeanStandardDeviation</Scaler>
         </ScalingNeuron>
      </ScalingLayer>
      <PerceptronLayer>
         <LayerName>perceptron_layer_1</LayerName>
         <InputsNumber>5</InputsNumber>
         <NeuronsNumber>100</NeuronsNumber>
         <ActivationFunction>HyperbolicTangent</ActivationFunction>
         <Parameters>-0.0439474 0.0433267 -0.151964 0.0720548 -0.0540578 0.0699986 0.0888998 -0.720691 0.0881479 -0.0591758 0.0806381 -0.966965 -0.0882652 -0.0906844 -0.785606 0.0822672 0.0786406 -0.110777 0.0341645 0.0740265 0.16184 -0.0951328 0.011479 -0.100773 0.0700173 0.0335275 -0.111488 -0.0823093 0.244052 -0.71355 0.222775 -2.2355 -0.0209375 -0.0867641 0.155919 0.140427 -0.108632 -0.0792677 -0.0114011 0.316764 0.0371035 -0.0819819 -0.0798198 0.0951414 0.0582786 0.116028 0.408125 0.0808823 -0.229716 -0.161259 0.0193367 -0.06958 -0.074403 -0.0919584 -1.56961 -0.818889 0.0599117 0.171976 0.0267775 0.0483771 0.0594713 -0.0761423 2.01285 -0.0917728 0.0843549 0.0790961 0.0365885 0.0144233 0.0914956 -0.0751392 -0.140582 -0.00916339 0.036256 -0.214225 -0.300451 -0.0205635 0.0124618 0.118135 0.0636956 -0.203551 0.253448 0.129584 -0.0568633 0.101644 -0.115844 -0.14298 0.0724838 0.26825 -0.0498892 0.115073 0.101123 -0.105262 0.104594 0.643161 0.858145 -0.0155001 -0.723711 0.0258767 -0.0688291 0.0335856 0.039634 -0.0205256 -0.0565197 0.0167137 -0.0255055 -0.0413183 0.0201267 0.0571869 -0.0160281 0.0250784 0.069059 -0.0560195 -0.14156 0.0150746 -0.0587773 -0.053604 0.0301037 0.0849651 -0.0182436 0.0378256 0.0458834 -0.0241482 -0.067815 0.0177258 -0.0301709 -0.0520449 0.0296964 0.0828392 -0.0186462 0.0371019 -0.0581826 0.0356963 0.0986882 -0.0179779 0.0442951 0.169961 -1.05309 0.294955 0.0147051 0.468969 -0.0573215 0.0359332 0.0981118 -0.0183571 0.0441208 0.0488411 -0.025861 -0.0732718 0.0178005 -0.0324132 -0.0555514 0.0333485 0.0921268 -0.0183496 0.0413395 -0.98377 1.35151 -0.0196748 0.0603371 -0.047068 0.0579932 -0.035535 -0.0981928 0.0180055 -0.0440724 0.0584108 -0.036385 -0.100071 0.0180297 -0.0449467 0.403483 0.615947 -1.27857 -0.113365 -0.338069 -0.0566119 0.0334146 0.0934855 -0.018129 0.0418466 -0.0553691 0.0325015 0.0904909 -0.0182158 0.0405163 0.0620904 -0.0432944 -0.114975 0.0174233 -0.0512761 -0.0356598 0.0164397 0.0466646 -0.0142153 0.0203987 0.7144 0.546123 0.398773 -0.412945 -0.430235 0.308692 -0.0883706 0.059954 0.472565 0.308568 1.2088 -0.645221 0.193693 -0.134095 -0.064002 -0.01533 0.0062436 0.0175009 -0.00595155 0.00753721 0.060079 -0.0400735 -0.107746 0.01796 -0.0483125 -0.0523923 0.029681 0.0830559 -0.0184306 0.0370892 -0.0363482 0.0160973 0.0465255 -0.0138829 0.0200002 0.0628045 -0.0430322 -0.115229 0.0170911 -0.0513049 -0.557379 -0.12427 -0.427911 -0.0415786 -0.351307 -0.0812524 0.0843853 0.187669 -0.0127396 0.0527647 0.394125 1.05214 0.213825 -0.173321 -0.256863 -0.079177 0.0761263 0.177922 -0.012392 0.0577146 -2.52206 -0.0376177 -0.258977 0.0545359 -0.420516 0.023453 -0.0107779 -0.0291965 0.0101943 -0.0132105 0.056857 -0.0355726 -0.0970344 0.0183889 -0.0436389 -0.0702547 0.0564606 0.143403 -0.0145846 0.059271 -0.0675154 0.0523436 0.134425 -0.0156536 0.057261 0.0615747 -0.0427492 -0.113491 0.0176204 -0.0505753 0.0550088 -0.0328259 -0.0909043 0.0185429 -0.0408177 0.012726 -0.0060138 -0.0156381 0.00588473 -0.00736356 0.302325 -0.0237019 -0.628239 0.195537 -0.0390227 -0.0384857 0.0176353 0.0506916 -0.0146614 0.0219259 0.0563183 -0.0336237 -0.093193 0.0181217 -0.0417905 0.0549642 -0.0331975 -0.0914065 0.0185628 -0.0410711 -0.124987 0.0398098 0.0427145 -0.322379 -0.246385 -0.0489501 0.0253999 0.0725784 -0.0176137 0.0319329 -0.0634033 0.0447065 0.118477 -0.0169983 0.0524903 0.217487 -0.15594 0.4394 -0.825092 -0.865219 -0.0557395 0.0332664 0.0923109 -0.0183766 0.0414012 0.0809676 -0.0750223 -0.180315 0.0116366 -0.0598762 0.0711204 -0.0581012 -0.146368 0.0142914 -0.0594957 1.89902 0.866401 0.25895 -0.14275 0.0955886 0.0530324 -0.0293207 -0.0828784 0.0180008 -0.0368237 0.0533731 -0.0313956 -0.0868357 0.0185726 -0.0389599 0.0586144 -0.0369031 -0.101046 0.01802 -0.0453896 -2.96523 0.208347 -0.148926 0.0284314 -0.534937 -1.1327 -0.627322 0.405325 0.0325762 0.223841 -0.049698 0.02605 0.074182 -0.0175517 0.0327076 0.528314 0.999767 0.825206 -0.326855 -0.168605 -0.027901 0.0134517 0.0366507 -0.0123689 0.0165005 -0.0441472 0.0220385 0.0626763 -0.0166699 0.0275169 -0.0497974 0.0256765 0.0738596 -0.0176011 0.0323762 0.0548354 -0.0314877 -0.0884446 0.0182308 -0.0394862 2.27614 0.253539 0.599397 -0.19387 0.56693 0.051249 -0.0372074 -0.115367 0.01905 -0.0704253 -0.0565238 0.0346043 0.0951075 -0.0182893 0.042731 -0.0550351 0.0329347 0.0908227 -0.0183972 0.0407788 -0.0357969 0.0175173 0.0485764 -0.0151018 0.0216936 -0.0168399 0.00763615 0.0204712 -0.00758687 0.00938743 -0.197398 0.0876061 -0.225485 -0.129703 -0.064501 0.0543366 -0.0313853 -0.0875689 0.0182343 -0.0391545 0.0671944 -0.0525122 -0.134755 0.0157756 -0.0575242 -0.0903834 0.159151 -0.120766 0.703163 -0.412621 -0.0383371 0.0171537 0.0497894 -0.0144998 0.0213779 0.0827107 -0.055638 -0.171094 0.00827269 -0.0772239 -0.35133 -0.0679754 0.181768 0.76839 0.463768 0.0242954 -0.0106443 -0.0296847 0.00994263 -0.0129764 -0.0153097 0.00667727 0.0180972 -0.00645787 0.00802111 -0.0637799 0.0453798 0.119903 -0.016864 0.0529684 -0.0490523 0.0279057 0.0769872 -0.0186854 0.034578 -0.84476 0.404197 -0.279509 0.653327 0.960379 0.592301 0.380528 -0.651276 -0.0918479 0.123539 -0.0655193 0.0490998 0.127695 -0.0163555 0.0555772 0.0481225 -0.0251257 -0.0711858 0.0174186 -0.0314373 -0.060718 0.0400173 0.108283 -0.0176464 0.0485282 0.0636469 -0.0443873 -0.118211 0.0168432 -0.0524081 0.0678637 -0.0531807 -0.136026 0.0155298 -0.0576277 -0.0523621 0.030765 0.0850139 -0.018829 0.0382199 -0.0173009 0.797991 0.163873 -0.145344 0.371633 0.0427068 -0.022625 -0.062384 0.0177818 -0.0282464 -0.0626553 0.0445447 0.118039 -0.0173502 0.0526189 -0.0594405 0.0408291 0.108197 -0.0182669 0.0483793 0.0604761 -0.0419499 -0.111183 0.0179985 -0.0496815 -0.061364 0.0409291 0.110401 -0.0174973 0.0494004 1.56053 0.607548 0.209986 -0.139229 1.21863 0.472639 0.0308398 1.54343 -0.0267775 0.204138 0.0194365 -0.00821119 -0.0229514 0.00784145 -0.00997843 -1.12341 0.0407733 -0.926443 0.217597 -0.0595846 -0.0288961 0.0128583 0.0360461 -0.0118912 0.0158516 0.0525515 -0.0292331 -0.0821538 0.0179897 -0.036585 -0.0343868 0.0161134 0.0449181 -0.0142974 0.0200314</Parameters>
      </PerceptronLayer>
      <PerceptronLayer>
         <LayerName>perceptron_layer_2</LayerName>
         <InputsNumber>100</InputsNumber>
         <NeuronsNumber>1</NeuronsNumber>
         <ActivationFunction>Linear</ActivationFunction>
         <Parameters>-0.470303 0.0926513 -0.0904245 0.248534 -0.140502 0.110695 -0.137503 -0.16519 -1.02582 -0.163706 0.118843 -0.152623 1.20175 0.164164 0.167827 -1.11087 -0.155885 -0.149586 0.195954 -0.0738205 0.963572 0.422167 0.935156 -0.0253064 0.182094 -0.136987 -0.0726183 0.196578 -0.426567 -0.356374 -1.02589 -0.331841 -2.33227 0.0468544 0.161463 -0.25361 -0.234799 0.193113 0.151396 0.0257625 -0.567907 -0.0784945 0.154212 0.151676 -0.348395 -0.117624 -0.202899 0.925395 -0.153706 0.340916 0.260056 1.30081 0.13543 0.143138 0.16947 1.88829 1.26818 -0.119088 -0.939674 -0.0586133 -0.099165 -0.120082 0.146544 2.33198 0.184821 -0.157905 -0.149671 -0.0788176 -0.0330818 0.278568 0.144055 0.23472 -0.555604 -0.0781482 0.324583 0.551803 0.0453161 -0.027898 -0.205426 -0.126881 0.944366 -0.819287 -0.220756 0.113347 -0.183246 0.202389 0.237857 -0.141042 0.686625 0.104606 -0.202173 -0.182661 0.188394 -0.187309 -1.37963 -1.24295 0.0346546 0.992768 -0.0580053 0.133324 -0.0742971</Parameters>
      </PerceptronLayer>
      <UnscalingLayer>
         <UnscalingNeuronsNumber>1</UnscalingNeuronsNumber>
         <Descriptives Index="1">
            <Minimum>103.38</Minimum>
            <Maximum>140.987</Maximum>
            <Mean>124.836</Mean>
            <StandardDeviation>6.89866</StandardDeviation>
            <Scaler>MeanStandardDeviation</Scaler>
         </Descriptives>
      </UnscalingLayer>
      <BoundingLayer>
         <BoundingNeuronsNumber>1</BoundingNeuronsNumber>
         <Item Index="1">
            <LowerBound>-3.40282e+38</LowerBound>
            <UpperBound>3.40282e+38</UpperBound>
         </Item>
         <UseBoundingLayer>1</UseBoundingLayer>
      </BoundingLayer>
   </Layers>
   <Outputs>
      <OutputsNumber>1</OutputsNumber>
      <Output Index="1">scaled_sound_pressure_level</Output>
   </Outputs>
</NeuralNetwork>
