<NeuralNetwork>
   <Inputs>
      <InputsNumber>5</InputsNumber>
      <Input Index="1">frequency</Input>
      <Input Index="2">angle_of_attack</Input>
      <Input Index="3">chord_lenght</Input>
      <Input Index="4">free-stream_velocity</Input>
      <Input Index="5">suction_side_displacement_thickness</Input>
   </Inputs>
   <Layers>
      <LayersTypes>Scaling Perceptron Perceptron Unscaling Bounding</LayersTypes>
      <ScalingLayer>
         <ScalingNeuronsNumber>5</ScalingNeuronsNumber>
         <ScalingNeuron Index="1">
            <Descriptives>200\20000\2886.38\3152.57</Descriptives>
            <Scaler>MeanStandardDeviation</Scaler>
         </ScalingNeuron>
         <ScalingNeuron Index="2">
            <Descriptives>0\22.2\6.7823\5.91813</Descriptives>
            <Scaler>MeanStandardDeviation</Scaler>
         </ScalingNeuron>
         <ScalingNeuron Index="3">
            <Descriptives>0.0254\0.3048\0.136548\0.0935407</Descriptives>
            <Scaler>MeanStandardDeviation</Scaler>
         </ScalingNeuron>
         <ScalingNeuron Index="4">
            <Descriptives>31.7\71.3\50.8607\15.5728</Descriptives>
            <Scaler>MeanStandardDeviation</Scaler>
         </ScalingNeuron>
         <ScalingNeuron Index="5">
            <Descriptives>0.000400682\0.0584113\0.0111399\0.0131502</Descriptives>
            <Scaler>MeanStandardDeviation</Scaler>
         </ScalingNeuron>
      </ScalingLayer>
      <PerceptronLayer>
         <LayerName>perceptron_layer_1</LayerName>
         <InputsNumber>5</InputsNumber>
         <NeuronsNumber>100</NeuronsNumber>
         <ActivationFunction>HyperbolicTangent</ActivationFunction>
         <Parameters>-0.108772 -0.282602 0.117133 0.00879293 0.0647118 1.34097 -0.156899 -0.223748 0.235322 -0.436781 0.316818 -0.395874 -0.591594 2.00671 -1.17796 -0.378298 0.0587879 0.0267782 -0.0991707 0.297482 -0.0597964 -2.02418 -0.0555094 -1.03504 0.360769 0.240677 0.387623 -0.0473973 -0.35146 -0.00202072 -0.311452 -1.10226 0.402597 -1.00214 0.150987 -0.562105 -1.10705 -0.20143 -0.0098203 -2.77956 0.1633 -0.609034 0.168581 -0.0289578 -0.389387 0.055035 -0.194367 0.257503 -0.218539 0.0823506 -0.0385173 0.0333773 -0.294497 0.0334455 -0.26875 -0.363309 -0.0105731 0.141962 0.0434411 0.152452 -0.43653 -0.347679 -0.660335 -0.0590572 -0.564339 -0.882963 2.08237 -0.028556 0.154744 0.223712 -0.016583 0.684511 -0.196919 -0.177591 0.0887988 0.749118 -0.0285802 -1.42357 -2.91023 0.137745 -0.279128 0.0278725 0.339689 -0.219684 -0.144488 -0.0643686 -1.32732 0.868459 -0.0347282 -0.467659 0.0188997 -0.0743774 0.246822 0.152481 -0.239636 -0.000606495 0.0843298 0.22863 -0.0442395 -0.340413 -0.822778 -0.0342082 -0.536083 0.203159 -0.401746 -0.271566 0.184933 0.264628 0.0297797 -0.0180576 -0.148523 0.0545441 0.227875 -0.182429 0.0363498 0.111951 0.108756 -0.133781 0.0167702 -0.21269 0.1176 0.138485 0.00617065 -0.144209 0.0263794 1.20477 -0.932095 -0.0242305 -0.0184953 -0.897085 -0.0328856 0.830346 0.359399 -0.483714 -0.338764 -0.192506 0.450773 0.0386252 -0.352974 -0.247088 0.0472326 -0.222592 0.0270406 0.0548989 -0.0575989 -0.0483961 -0.280166 0.245498 -0.172182 -0.111325 -0.146738 0.135967 0.259964 -0.149921 -0.053858 -0.69323 -0.605224 -1.29743 0.609498 0.0439384 0.268556 0.00968784 0.364712 -0.1912 0.29259 2.20708 -0.175433 -0.131762 -0.0105271 0.226899 -2.63942 -1.25855 -0.953693 0.453881 -1.10844 0.24234 0.290745 -0.108149 -0.0321275 -0.430198 -0.060184 0.0438497 0.205359 -0.0261677 0.0517619 0.102294 0.0285733 -0.0448557 0.0846667 -0.0564547 -0.647122 -0.214824 0.25472 0.174161 -0.0934703 0.30985 0.0507664 -0.76919 0.138474 -0.0164342 -0.103335 0.0200781 -0.047772 0.0357378 0.0727065 0.0482028 -0.537896 0.218723 0.197463 1.20684 0.127148 0.106781 -0.137736 -0.232485 0.288765 0.342214 1.10877 0.154571 0.563288 -0.844854 0.132421 0.253538 0.342833 0.119897 -0.116425 0.562757 -0.210239 -0.221423 0.0798368 0.203986 0.964749 0.512878 0.474222 -0.0447422 0.136833 0.355457 0.603166 0.516417 -0.145432 -0.248246 -0.841176 -0.474518 -0.390698 0.0798696 -0.104136 -0.184196 -0.0997546 -0.0126696 0.141039 0.0589357 0.237382 0.0833069 0.330918 -0.0777295 0.12972 -0.0662032 0.556514 0.193538 -0.078465 -0.283297 1.6593 0.61175 1.27947 0.00426785 -0.0400469 -0.800772 1.26597 -1.67943 0.333359 0.600901 -0.0148976 0.0446946 -0.0205196 0.00856836 -0.0153098 0.285454 0.408653 -0.0687724 -0.110904 -0.461117 1.052 -0.116523 0.623001 0.285593 0.123149 0.148398 0.0564329 -0.21991 0.0643118 -0.176699 -0.0677982 0.00639374 0.0910272 0.0564417 0.0950478 -4.55481 0.204687 -0.161399 -0.048356 -0.591488 -0.049521 -0.0708652 0.246918 0.112946 -0.145935 -0.0856183 -0.481705 0.805992 -0.105976 -0.183001 -0.781595 -0.212565 -1.12662 -0.479802 0.23057 0.123435 -0.101915 -0.212316 0.20995 -0.00355514 -0.0410919 -0.00777579 -0.264857 -0.0772722 -0.103332 0.207257 -0.071513 -0.0392079 0.298868 0.0543697 -0.561548 0.0538431 -0.198053 -0.158253 0.0798506 -0.0708679 0.0716484 0.218253 0.00294924 0.059767 -0.245321 0.283993 -0.133209 -0.214869 -0.11495 -0.000510856 0.0520757 0.136743 -0.100433 0.0935511 -0.0608569 0.0069527 0.230969 -0.104355 0.114998 0.591091 -0.0839183 -0.0953389 -0.0594778 0.210138 -0.296189 0.0950457 0.893583 -0.198917 0.0382229 -0.0359849 0.0169095 -0.224146 -0.0152111 -0.0166938 0.262928 0.0913809 0.114645 -0.0887331 -0.251381 -0.837275 1.68834 -0.15349 0.283479 0.901851 0.0406351 -0.0661694 0.060802 -0.0551411 -6.41738e-05 -0.00992439 0.149016 -0.124535 0.0329353 -0.0618866 -0.0750332 -0.0549483 -0.242587 -0.0112152 -0.0980702 0.470726 0.0601312 0.22655 0.0736075 -0.0294103 1.24497 0.24342 0.662718 -0.0448683 -0.729295 -0.746806 0.134313 -0.143117 -0.268461 -0.399243 0.459287 0.216843 0.052976 -0.673182 -0.663951 -0.211852 0.259615 0.0448309 -0.0846795 0.263276 -0.946591 -0.576808 -0.0222181 -0.636572 0.452414 -0.0496901 0.124155 0.534224 0.63019 -0.517674 -0.0755422 -1.80186 0.0837535 0.239037 0.376337 0.0545799 -0.90532 0.0165755 -0.60151 0.312992 0.548668 0.0578522 -0.0251007 0.00746654 -0.46534 0.450009 -0.263777 0.132907 0.376462 0.250422 0.11724 -0.406262 -0.195537 0.10169 -0.454062 0.0368781 -0.358847 -0.233262 -0.101551 0.0647162 0.241755 0.139208 0.371913 0.0170902 0.047942 -0.31024 0.0246392 0.184588 -0.0197341 0.0710399 0.550548 -0.0207454 0.119081 0.0885068 -0.292853 -0.598181 -0.695072 1.89349 0.17172 -0.301191 6.17835e-05 -0.0194886 -0.204387 -0.039104 -0.0649409 -1.97392 -0.37113 0.206557 0.0748161 -0.802463 -3.60513 -0.135537 -0.535309 0.0818079 -0.560801 0.692542 0.400574 0.261542 -0.204707 -0.52348 -1.18132 -1.05839 -0.381787 0.0557709 0.702687 0.169133 0.138722 -0.0623697 -0.176174 0.240369 0.645242 0.420421 -0.465699 -0.143304 0.420847 -0.0914689 0.497582 0.178658 -0.121184 0.346788 -0.133668 0.324437 0.0604022 -0.274211 -0.104636 0.00680344 0.105691 -0.136657 -0.0340154 -0.133823 -1.23191 0.110397 -1.86292 0.00360114 -0.120912 1.27644 0.375177 0.387655 -0.347368 0.129844 0.141928 0.00221115 -0.123071 0.173766 0.0117281 -0.141174 0.204305 -0.344618 -0.68398 -0.633228 0.116959 -0.288609 -0.164829 0.264228 0.110442 -0.592739 -0.335009 0.391341 0.0570525 -0.160958 0.845123 0.641985 0.320619 -0.184016 -0.184469 -0.761339 -0.869285 -0.262123 0.101526 -0.257758 0.0227852 -0.0089042 -0.25876 -0.215434 0.210991 -0.0663617 -0.0496431 0.147581 0.284227 -0.346141 -0.166519 -0.184119 -0.285765 -0.00788713 0.00780662 0.0294097 -0.0514155 -0.228788 -0.0349159 -0.0779597 0.151098 -0.0442536 -0.120739 0.19357 -0.0335633 -0.535146 0.11274 -0.268284 -0.387009 -0.396058</Parameters>
      </PerceptronLayer>
      <PerceptronLayer>
         <LayerName>perceptron_layer_2</LayerName>
         <InputsNumber>100</InputsNumber>
         <NeuronsNumber>1</NeuronsNumber>
         <ActivationFunction>Linear</ActivationFunction>
         <Parameters>-0.520761 -0.312049 0.118254 -0.395956 0.270397 0.0514557 -1.08646 -0.382812 -0.385736 -0.147531 -0.31537 -0.394219 0.570561 -0.54234 1.7886 0.750085 0.660219 -0.238191 0.0750291 0.421445 -0.44169 -0.0282381 0.664286 0.240903 -1.00215 -0.530865 -0.214262 0.625651 -0.438638 -0.430771 -0.129384 -0.414847 0.687854 -0.834737 -0.583959 0.0312181 0.720205 -0.811571 0.410803 -0.151722 2.26411 -0.415528 0.205661 0.55349 0.324089 0.450903 0.249691 -0.0309251 -0.343517 -0.253504 -0.126148 -0.318923 -0.381645 0.640265 0.353657 0.164429 1.10891 -0.0572899 0.14957 0.254036 0.152482 1.28192 -0.00817594 0.878786 0.124561 0.689058 0.517406 1.10616 -0.544478 0.291574 0.30661 -0.237437 -0.425612 -0.347682 0.0270882 0.145005 0.695668 0.256685 1.36045 -3.46976 0.422019 -0.859801 0.183009 -0.641955 0.24591 -0.183177 0.188481 1.34742 1.03136 0.190237 -0.558566 0.234342 0.464698 0.452613 0.319881 0.328435 -0.291532 0.30554 0.161348 0.255078 -0.453942</Parameters>
      </PerceptronLayer>
      <UnscalingLayer>
         <UnscalingNeuronsNumber>1</UnscalingNeuronsNumber>
         <Descriptives Index="1">
            <Minimum>103.38</Minimum>
            <Maximum>140.987</Maximum>
            <Mean>124.836</Mean>
            <StandardDeviation>6.89866</StandardDeviation>
            <Scaler>MeanStandardDeviation</Scaler>
         </Descriptives>
      </UnscalingLayer>
      <BoundingLayer>
         <BoundingNeuronsNumber>1</BoundingNeuronsNumber>
         <Item Index="1">
            <LowerBound>-3.40282e+38</LowerBound>
            <UpperBound>3.40282e+38</UpperBound>
         </Item>
         <UseBoundingLayer>1</UseBoundingLayer>
      </BoundingLayer>
   </Layers>
   <Outputs>
      <OutputsNumber>1</OutputsNumber>
      <Output Index="1">scaled_sound_pressure_level</Output>
   </Outputs>
</NeuralNetwork>
