<NeuralNetwork>
   <Inputs>
      <InputsNumber>5</InputsNumber>
      <Input Index="1">frequency</Input>
      <Input Index="2">angle_of_attack</Input>
      <Input Index="3">chord_lenght</Input>
      <Input Index="4">free-stream_velocity</Input>
      <Input Index="5">suction_side_displacement_thickness</Input>
   </Inputs>
   <Layers>
      <LayersTypes>Scaling Perceptron Perceptron Unscaling Bounding</LayersTypes>
      <ScalingLayer>
         <ScalingNeuronsNumber>5</ScalingNeuronsNumber>
         <ScalingNeuron Index="1">
            <Descriptives>200\20000\2886.38\3152.57</Descriptives>
            <Scaler>MeanStandardDeviation</Scaler>
         </ScalingNeuron>
         <ScalingNeuron Index="2">
            <Descriptives>0\22.2\6.7823\5.91813</Descriptives>
            <Scaler>MeanStandardDeviation</Scaler>
         </ScalingNeuron>
         <ScalingNeuron Index="3">
            <Descriptives>0.0254\0.3048\0.136548\0.0935407</Descriptives>
            <Scaler>MeanStandardDeviation</Scaler>
         </ScalingNeuron>
         <ScalingNeuron Index="4">
            <Descriptives>31.7\71.3\50.8607\15.5728</Descriptives>
            <Scaler>MeanStandardDeviation</Scaler>
         </ScalingNeuron>
         <ScalingNeuron Index="5">
            <Descriptives>0.000400682\0.0584113\0.0111399\0.0131502</Descriptives>
            <Scaler>MeanStandardDeviation</Scaler>
         </ScalingNeuron>
      </ScalingLayer>
      <PerceptronLayer>
         <LayerName>perceptron_layer_1</LayerName>
         <InputsNumber>5</InputsNumber>
         <NeuronsNumber>100</NeuronsNumber>
         <ActivationFunction>HyperbolicTangent</ActivationFunction>
         <Parameters>-0.0698364 0.0699732 0.0701439 0.292772 -0.07001 -0.0699933 0.0700872 0.0703364 -0.300838 2.40272 0.0703256 -0.0702112 0.0701531 0.534189 0.430706 -0.0700475 0.635895 -0.0700463 0.0700636 -0.070094 -0.0701073 0.0701614 0.0699873 -0.0713143 0.0702161 -0.0700707 0.0702049 -0.0702945 0.0713024 -0.0700925 -0.0728758 -0.301689 0.0413508 0.17403 -0.0700633 -0.0699021 0.602222 -0.648684 0.0702372 -0.0700418 1.04243 -0.936958 0.137355 -0.070111 -0.0699104 0.0701955 -0.0701136 0.0698618 0.0725758 -0.542015 -0.580343 -0.0698535 -0.0701318 0.0699989 0.00934391 0.0701552 -0.0701156 -0.0701277 -0.0701492 -0.0699693 0.810077 -0.0699547 -0.0700732 1.62579 0.0698018 0.070021 0.0699728 0.0701665 -0.0699604 0.0703097 0.0700722 0.0729813 -0.070076 0.112056 -0.0700254 -0.0699443 0.0702473 0.0705093 -0.0700753 0.0701118 -0.0700717 0.0704624 0.0701397 0.0701803 -0.0700556 0.070093 0.0701658 0.0700552 0.0701946 0.578202 0.0702083 0.0698146 -0.0701588 0.07009 -0.0701745 -0.0700915 -0.0706354 0.0704735 1.43994 0.915222 0.00586576 -0.0355319 -0.0943614 0.0568472 -0.0510303 -0.00585386 0.0355901 0.094504 -0.0569039 0.0511303 -0.00583899 0.0356625 0.0946814 -0.0569744 0.0512547 0.0153026 0.336029 0.490543 0.399071 -0.410977 0.00585065 -0.0356057 -0.0945423 0.0569192 -0.0511571 0.00585209 -0.0355986 -0.0945249 0.0569123 -0.0511449 -0.00584397 0.0356384 0.0946224 -0.056951 0.0512133 -0.00582227 0.0357438 0.0948816 -0.0570534 0.0513953 -1.03197 -0.694751 -0.402167 0.170191 0.508642 2.58235 0.183794 0.628919 -0.0931334 0.611445 -0.00582323 0.0357392 0.0948704 -0.057049 0.0513874 0.00583317 -0.0356909 -0.0947516 0.0570021 -0.0513039 -0.00583821 0.0356663 0.0946911 -0.0569782 0.0512615 -0.147723 0.734402 -0.434176 0.0647858 -0.142865 0.541506 0.168497 -0.724096 -0.14356 0.0508948 0.00584742 -0.0356216 -0.0945812 0.0569346 -0.0511843 -0.96083 -0.0320288 -0.571953 0.107277 0.972872 0.00584751 -0.0356211 -0.09458 0.0569341 -0.0511835 -0.00584601 0.0356284 0.094598 -0.0569413 0.0511962 0.00584337 -0.0356413 -0.0946295 0.0569538 -0.0512183 0.00584219 -0.0356469 -0.0946435 0.0569593 -0.051228 -0.00583751 0.0356699 0.0946997 -0.0569816 0.0512676 -0.00585263 0.0355961 0.0945187 -0.0569098 0.0511405 0.00573711 -0.0361537 -0.0958933 0.0574486 -0.0521084 -0.00583273 0.035693 0.0947566 -0.0570041 0.0513075 0.00584538 -0.0356315 -0.0946055 0.0569442 -0.0512014 -0.00583373 0.0356882 0.0947449 -0.0569995 0.0512993 0.00582591 -0.0357261 -0.094838 0.0570363 -0.0513647 -0.00573824 0.0361483 0.0958812 -0.0574436 0.0521005 0.00584348 -0.0356407 -0.0946281 0.0569532 -0.0512173 0.00560182 -0.0367926 -0.0974956 0.058056 -0.0532506 -0.445224 -0.733411 -0.823282 0.215949 0.102626 0.296616 -0.033985 0.0725159 0.562451 0.42986 -0.115243 -0.176865 0.256444 -0.822029 0.453595 0.00584603 -0.0356283 -0.0945978 0.0569412 -0.051196 0.00586006 -0.0355599 -0.09443 0.0568745 -0.0510783 -0.127697 -0.416866 0.310509 -0.567189 -0.787158 0.471303 0.58066 -1.31845 -0.203147 -0.184904 -0.00583093 0.0357019 0.0947784 -0.0570127 0.0513228 0.00584788 -0.0356193 -0.0945755 0.0569324 -0.0511804 0.172531 -1.23632 0.140292 0.247966 0.632746 -1.09982 0.674647 -0.167692 0.13818 0.0656001 -0.159152 0.606902 0.0414891 -0.0436777 0.244032 0.00584189 -0.0356485 -0.0946474 0.0569609 -0.0512308 0.0058593 -0.0355635 -0.0944387 0.0568779 -0.0510845 -0.0058345 0.0356843 0.0947352 -0.0569956 0.0512925 0.00584168 -0.0356496 -0.09465 0.0569619 -0.0512326 -0.00586352 0.0355428 0.094388 -0.0568578 0.051049 -0.00562769 0.0366712 0.0971892 -0.0579413 0.0530312 0.521274 0.132218 0.0304543 -0.502821 -0.236892 -0.825687 -0.399925 0.434355 -0.0251213 0.0877762 0.00586425 -0.0355392 -0.0943793 0.0568543 -0.0510429 0.00584009 -0.0356573 -0.0946688 0.0569694 -0.0512459 -0.00585162 0.035601 0.0945307 -0.0569145 0.051149 1.71223 0.76199 0.0602311 -0.168522 0.048208 -0.00583808 0.0356672 0.0946933 -0.056979 0.051263 0.00584149 -0.0356505 -0.094652 0.0569627 -0.0512341 0.00584043 -0.0356556 -0.0946646 0.0569677 -0.0512429 0.00583854 -0.0356647 -0.094687 0.0569766 -0.0512586 0.00585418 -0.0355885 -0.0944999 0.0569023 -0.0511274 1.49109 0.30672 -0.00561604 -0.122331 1.46692 0.00585545 -0.0355823 -0.0944847 0.0568963 -0.0511167 0.00584518 -0.0356325 -0.0946079 0.0569452 -0.0512031 3.21992 -0.135122 0.0989514 -0.0353498 0.465153 -0.00586876 0.0355171 0.0943253 -0.0568328 0.0510051 -0.0058497 0.0356104 0.0945536 -0.0569237 0.0511651 -0.00585392 0.0355899 0.0945036 -0.0569038 0.0511299 -0.00583707 0.035672 0.094705 -0.0569836 0.0512712 0.00585496 -0.0355847 -0.0944907 0.0568986 -0.0511209 -0.00582461 0.0357325 0.0948538 -0.0570425 0.0513757 -0.00584526 0.0356321 0.094607 -0.0569449 0.0512024 -0.00559271 0.0368351 0.0976034 -0.058096 0.0533278 0.00584493 -0.0356337 -0.094611 0.0569463 -0.0512053 -0.00643377 0.0427328 0.13178 -0.0623581 0.0817912 0.00584934 -0.0356122 -0.0945582 0.0569254 -0.0511682 0.00585635 -0.0355778 -0.0944739 0.056892 -0.0511092 -0.00583005 0.0357062 0.0947889 -0.0570169 0.0513302 -0.00580724 0.0358167 0.095061 -0.0571241 0.0515215 0.00584501 -0.0356334 -0.0946102 0.0569461 -0.0512047 -0.00584183 0.0356488 0.0946481 -0.0569611 0.0512313 0.0058453 -0.0356319 -0.0946064 0.0569446 -0.051202 -0.00581132 0.0357969 0.0950123 -0.0571049 0.0514872 -0.0058394 0.0356607 0.0946771 -0.0569726 0.0512517 -0.00583584 0.0356778 0.0947194 -0.0569894 0.0512813 0.00584671 -0.035625 -0.0945897 0.056938 -0.0511903 -0.00584344 0.0356409 0.0946286 -0.0569534 0.0512176 -0.00583711 0.0356717 0.0947043 -0.0569834 0.0512707 -0.00584672 0.0356249 0.0945893 -0.0569378 0.0511901 -0.00583462 0.0356839 0.0947342 -0.0569953 0.0512918 0.461313 -1.63509 -0.0978218 -0.108864 -0.451392 -0.00583342 0.0356897 0.0947485 -0.0570009 0.0513018 -0.00586763 0.0355227 0.0943389 -0.0568382 0.0510146 0.00583773 -0.0356688 -0.094697 0.0569805 -0.0512656 -0.00584371 0.0356396 0.0946255 -0.0569522 0.0512154 0.00583637 -0.0356754 -0.0947132 0.056987 -0.0512771 0.00584357 -0.0356403 -0.0946271 0.0569528 -0.0512166 0.00579625 -0.0358697 -0.0951916 0.0571754 -0.0516135 -0.00581036 0.0358016 0.0950237 -0.0571094 0.0514953 1.71 -0.101341 -0.0237892 -0.189118 0.332381 0.885383 -0.069161 1.72475 0.0380077 0.278743</Parameters>
      </PerceptronLayer>
      <PerceptronLayer>
         <LayerName>perceptron_layer_2</LayerName>
         <InputsNumber>100</InputsNumber>
         <NeuronsNumber>1</NeuronsNumber>
         <ActivationFunction>Linear</ActivationFunction>
         <Parameters>-0.464471 0.15179 -0.152049 -0.152371 -0.709238 0.152118 0.152087 -0.152264 -0.152734 -1.01086 3.00891 -0.152714 0.152498 -0.152389 0.820702 -0.989275 0.152189 -0.976993 0.152187 -0.15222 0.152277 0.152302 -0.152404 -0.152076 0.154574 -0.152508 0.152233 -0.152486 0.152655 -0.154552 0.152274 0.157495 0.893211 0.629855 0.595588 0.152219 0.151915 0.810117 -1.00446 -0.152547 0.152179 1.27685 1.26841 0.522878 0.152309 0.15193 -0.152469 0.152314 -0.151839 -0.156935 0.709495 0.963772 0.151823 0.152348 -0.152098 0.938756 -0.152393 0.152318 0.152341 0.152381 0.152042 -1.61002 0.152014 0.152238 -1.66798 -0.151725 -0.152139 -0.152048 -0.152414 0.152025 -0.152684 -0.152236 -0.157691 0.152243 -0.221168 0.152147 0.151994 -0.152566 -0.15306 0.152242 -0.152311 0.152235 -0.152972 -0.152363 -0.15244 0.152205 -0.152275 -0.152412 -0.152204 -0.152467 -1.5504 -0.152493 -0.151749 0.152399 -0.152269 0.152429 0.152272 0.153298 -0.152993 1.53986 -1.28226</Parameters>
      </PerceptronLayer>
      <UnscalingLayer>
         <UnscalingNeuronsNumber>1</UnscalingNeuronsNumber>
         <Descriptives Index="1">
            <Minimum>103.38</Minimum>
            <Maximum>140.987</Maximum>
            <Mean>124.836</Mean>
            <StandardDeviation>6.89866</StandardDeviation>
            <Scaler>MeanStandardDeviation</Scaler>
         </Descriptives>
      </UnscalingLayer>
      <BoundingLayer>
         <BoundingNeuronsNumber>1</BoundingNeuronsNumber>
         <Item Index="1">
            <LowerBound>-3.40282e+38</LowerBound>
            <UpperBound>3.40282e+38</UpperBound>
         </Item>
         <UseBoundingLayer>1</UseBoundingLayer>
      </BoundingLayer>
   </Layers>
   <Outputs>
      <OutputsNumber>1</OutputsNumber>
      <Output Index="1">scaled_sound_pressure_level</Output>
   </Outputs>
</NeuralNetwork>
